SVM-light Version V6.02
1 # kernel type
2 # kernel parameter -d 
1 # kernel parameter -g 
1 # kernel parameter -s 
1 # kernel parameter -r 
empty# kernel parameter -u 
778 # highest feature index 
6000 # number of training documents 
1647 # number of support vectors plus 1 
0.28969113 # threshold b, each following line is a SV (starting with alpha*y)
8.5735979859070542490202686496313e-15 73:28 74:157 75:224 76:14 101:126 102:254 103:235 104:32 128:72 129:242 130:254 131:184 155:31 156:209 157:254 158:196 159:16 182:16 183:218 184:254 185:201 186:18 210:198 211:254 212:219 213:30 237:44 238:244 239:254 240:91 264:14 265:230 266:254 267:155 292:35 293:254 294:247 295:49 319:23 320:208 321:254 322:176 347:60 348:255 349:254 350:19 375:142 376:254 377:187 378:3 403:156 404:254 405:108 431:247 432:235 433:6 459:254 460:234 487:233 488:247 489:71 490:10 491:134 492:218 493:254 494:254 495:239 496:59 515:112 516:254 517:242 518:221 519:254 520:220 521:181 522:240 523:254 524:201 543:18 544:197 545:254 546:254 547:254 548:61 550:79 551:254 552:254 572:17 573:147 574:251 575:254 576:243 577:235 578:241 579:254 580:147 602:107 603:155 604:254 605:254 606:223 607:140 608:14 #
-1.4370387951115948636510227663148e-14 153:126 154:204 155:253 156:165 157:141 158:204 159:253 160:165 161:141 181:175 182:253 183:252 184:252 185:252 186:253 187:252 188:252 189:252 190:51 210:56 211:56 212:209 213:252 214:253 215:252 216:252 217:214 238:126 239:225 240:246 241:252 242:253 243:252 244:127 245:15 265:176 266:255 267:253 268:231 269:175 270:114 271:38 292:57 293:243 294:253 295:139 296:19 320:85 321:252 322:253 323:84 348:85 349:252 350:253 351:84 376:38 377:226 378:254 379:203 380:7 405:38 406:253 407:252 408:130 434:128 435:252 436:234 437:59 462:4 463:178 464:252 465:190 491:101 492:247 493:253 519:13 520:209 521:252 547:57 548:252 549:252 570:114 571:113 572:25 575:107 576:252 577:252 597:63 598:254 599:228 600:44 602:4 603:179 604:253 605:190 625:38 626:253 627:252 628:224 629:119 630:79 631:252 632:252 633:115 654:119 655:224 656:252 657:252 658:253 659:252 660:186 661:6 683:44 684:177 685:252 686:253 687:227 688:43 #
7.4269948615366390453587153882057e-15 127:80 128:254 129:253 130:245 131:122 132:7 154:84 155:242 156:239 157:168 158:210 159:252 160:121 181:73 182:246 183:244 184:17 186:127 187:252 188:235 209:197 210:252 211:121 213:22 214:202 215:252 216:121 236:71 237:249 238:226 239:24 240:18 241:199 242:252 243:199 244:7 264:191 265:253 266:190 268:210 269:253 270:232 271:115 292:190 293:252 294:189 295:159 296:253 297:189 298:40 320:190 321:252 322:247 323:249 324:250 325:58 348:190 349:252 350:252 351:252 352:115 376:190 377:252 378:252 379:252 404:129 405:253 406:253 407:236 432:121 433:252 434:252 435:68 459:4 460:195 461:252 462:252 463:138 487:69 488:252 489:252 490:252 491:217 492:27 515:148 516:252 517:199 518:217 519:252 520:194 543:210 544:253 545:144 546:54 547:247 548:255 549:95 550:4 571:218 572:252 573:247 574:163 575:136 576:253 577:252 578:135 599:30 600:205 601:242 602:252 603:252 604:253 605:252 606:251 607:179 608:13 629:42 630:154 631:242 632:253 633:252 634:252 635:252 636:147 659:35 660:60 661:147 662:200 663:226 664:86 #
5.2013249844797511331610913214226e-16 133:38 134:113 135:101 160:147 161:234 162:252 163:223 186:38 187:135 188:253 189:252 190:252 191:192 213:54 214:224 215:252 216:253 217:252 218:252 219:103 220:13 240:126 241:227 242:252 243:252 244:253 245:204 246:142 247:252 248:189 267:255 268:253 269:253 270:178 271:140 273:48 274:166 275:178 276:63 294:126 295:253 296:252 297:154 298:9 302:182 303:234 304:225 320:13 321:150 322:227 323:253 324:233 325:43 329:67 330:240 331:252 332:220 347:57 348:187 349:252 350:252 351:240 352:71 357:101 358:252 359:252 360:112 375:163 376:252 377:252 378:252 379:63 385:225 386:252 387:236 388:50 402:176 403:253 404:253 405:162 412:51 413:238 414:253 415:84 428:10 429:163 430:253 431:223 432:58 433:9 439:48 440:238 441:252 442:233 443:56 456:138 457:252 458:253 459:58 466:132 467:227 468:253 469:186 470:43 483:54 484:224 485:252 486:162 487:9 493:23 494:178 495:252 496:240 497:71 510:48 511:227 512:252 513:252 520:126 521:227 522:252 523:252 524:63 538:226 539:253 540:240 541:63 544:89 545:128 546:253 547:255 548:253 549:253 550:162 565:38 566:234 567:252 568:233 569:85 570:85 571:131 572:246 573:252 574:252 575:253 576:223 577:136 578:9 593:144 594:252 595:252 596:252 597:252 598:253 599:252 600:252 601:245 602:195 603:196 604:52 621:146 622:249 623:252 624:252 625:252 626:240 627:223 628:192 629:74 650:100 651:112 652:112 653:112 654:63 #
3.0013993061698247393250479583893e-14 126:5 127:200 128:74 154:90 155:255 156:191 157:31 181:32 182:231 183:255 184:254 185:215 186:31 209:64 210:254 211:201 212:145 213:242 214:155 237:138 238:254 239:85 241:157 242:250 243:40 264:33 265:245 266:175 269:128 270:254 271:96 292:108 293:254 294:139 297:68 298:254 299:95 319:16 320:216 321:222 322:23 325:9 326:228 327:159 347:52 348:254 349:170 354:223 355:129 375:161 376:254 377:61 382:173 383:144 402:16 403:254 404:207 410:198 411:175 430:51 431:254 432:171 438:223 439:115 458:96 459:254 460:112 465:9 466:228 467:95 486:96 487:246 488:36 493:68 494:254 495:95 514:96 515:232 516:15 521:128 522:254 523:95 542:101 543:254 544:48 549:128 550:251 551:40 570:140 571:254 572:141 576:14 577:168 578:155 598:56 599:254 600:215 601:6 603:23 604:183 605:245 606:65 626:12 627:218 628:254 629:206 630:143 631:210 632:254 633:117 655:52 656:189 657:254 658:254 659:225 660:129 661:3 #
-3.0613232749956008549673124880415e-14 157:114 158:159 185:145 186:223 187:20 212:11 213:225 214:171 240:112 241:253 242:127 268:163 269:253 270:62 295:59 296:255 297:140 323:175 324:254 325:89 350:10 351:217 352:243 353:15 378:90 379:253 380:142 406:173 407:253 408:91 434:200 435:228 436:33 461:21 462:230 463:142 489:159 490:253 491:72 517:217 518:232 519:16 544:20 545:230 546:144 572:62 573:241 574:144 600:145 601:253 602:125 628:145 629:253 630:54 656:107 657:253 658:54 684:16 685:195 686:54 #
8.464224162180574588401246633321e-17 154:28 155:195 156:254 157:254 158:254 159:254 160:254 161:255 162:61 181:6 182:191 183:253 184:253 185:253 186:253 187:253 188:253 189:253 190:60 208:26 209:190 210:253 211:253 212:253 213:253 214:240 215:191 216:242 217:253 218:60 235:15 236:187 237:253 238:253 239:253 240:253 241:253 242:200 244:211 245:253 246:60 262:22 263:66 264:253 265:253 266:253 267:253 268:241 269:209 270:44 271:23 272:218 273:253 274:60 290:124 291:253 292:253 293:253 294:253 295:253 296:182 299:131 300:253 301:253 302:60 318:38 319:217 320:253 321:253 322:244 323:111 324:37 327:131 328:253 329:253 330:60 346:124 347:253 348:253 349:253 350:165 354:22 355:182 356:253 357:253 358:60 374:124 375:253 376:253 377:240 378:45 382:53 383:253 384:253 385:249 386:58 401:16 402:168 403:253 404:216 405:45 410:53 411:253 412:253 413:138 429:159 430:253 431:253 432:147 438:53 439:253 440:253 441:138 456:136 457:252 458:253 459:227 460:5 466:53 467:253 468:243 469:101 484:140 485:253 486:253 487:124 494:156 495:253 496:218 511:13 512:164 513:253 514:142 515:5 521:32 522:233 523:253 524:218 539:62 540:253 541:253 542:130 548:37 549:203 550:253 551:253 552:127 567:62 568:253 569:253 570:147 571:36 572:36 573:36 574:36 575:151 576:222 577:253 578:245 579:127 580:8 595:34 596:202 597:253 598:253 599:253 600:253 601:253 602:253 603:253 604:253 605:253 606:200 624:140 625:253 626:253 627:253 628:253 629:253 630:253 631:253 632:248 633:235 634:65 652:87 653:173 654:253 655:253 656:253 657:253 658:253 659:253 660:182 681:14 682:78 683:96 684:253 685:253 686:253 687:137 688:56 #
1.6998910347613420342536085288882e-14 122:64 123:128 124:191 125:128 126:255 127:255 128:255 129:255 130:255 131:128 148:64 149:191 150:255 151:255 152:255 153:255 154:255 155:255 156:255 157:255 158:255 159:255 160:255 161:64 176:255 177:255 178:191 179:128 186:64 187:191 188:255 189:128 204:64 205:191 215:191 216:255 217:128 242:128 243:255 244:255 245:64 269:64 270:255 271:255 272:64 296:64 297:255 298:255 299:128 323:191 324:255 325:255 326:128 350:255 351:255 352:255 353:64 376:64 377:191 378:255 379:191 403:64 404:191 405:255 406:191 431:255 432:255 433:255 458:191 459:255 460:191 461:64 485:191 486:255 487:255 488:64 512:191 513:255 514:255 540:255 541:255 542:191 559:64 568:255 569:255 570:191 584:64 585:128 586:128 587:191 596:255 597:255 598:255 599:255 600:191 601:128 602:128 603:128 604:64 606:128 607:128 608:128 609:128 610:128 611:191 612:255 613:255 614:128 615:64 624:64 625:191 626:255 627:255 628:255 629:255 630:255 631:255 632:255 633:255 634:255 635:255 636:255 637:255 638:255 639:191 654:64 655:128 656:128 657:128 658:128 659:128 660:128 661:128 662:128 663:128 664:128 665:64 #
3.0613232749956008549673124880415e-14 235:40 236:37 238:7 239:77 240:137 241:136 242:136 243:136 244:136 245:40 246:6 261:16 262:135 263:254 264:233 266:152 267:215 268:96 269:140 270:155 271:118 272:230 273:254 274:158 275:68 288:19 289:164 290:254 291:114 294:235 295:140 301:99 302:230 303:254 304:186 305:14 315:70 316:226 317:242 318:121 322:104 323:195 324:38 330:33 331:179 332:253 333:140 342:41 343:241 344:198 345:43 359:24 360:209 361:223 370:164 371:250 372:66 388:136 389:253 398:254 399:158 416:136 417:215 426:255 427:76 442:5 443:127 444:246 445:133 454:254 455:122 469:5 470:150 471:247 472:91 473:9 482:254 483:165 495:13 496:79 497:194 498:216 499:84 510:111 511:251 512:87 519:16 520:25 521:40 522:107 523:186 524:213 525:117 526:25 538:14 539:185 540:235 541:142 542:23 546:91 547:157 548:231 549:207 550:126 551:49 569:143 570:195 571:255 572:254 573:254 574:244 575:157 576:76 599:39 600:39 601:39 602:33 #
3.0613232749956008549673124880415e-14 163:43 164:254 165:177 190:58 191:232 192:253 193:86 212:135 213:176 214:95 216:13 217:153 218:224 219:247 220:107 221:6 237:4 238:107 239:189 240:248 241:254 242:211 243:13 244:110 245:253 246:244 247:122 265:95 266:253 267:253 268:253 269:178 270:135 271:48 272:245 273:253 274:120 292:217 293:254 294:254 295:154 297:14 298:89 299:254 300:254 301:133 318:71 319:214 320:254 321:243 322:68 323:18 325:224 326:238 327:253 328:182 329:9 345:25 346:180 347:253 348:213 349:72 352:99 353:254 354:253 355:228 356:73 372:4 373:142 374:253 375:200 376:90 379:7 380:166 381:254 382:250 383:140 384:8 400:12 401:223 402:253 403:155 407:77 408:253 409:254 410:195 428:53 429:236 430:254 431:178 432:23 434:19 435:239 436:254 437:241 438:30 457:93 458:253 459:253 460:230 461:214 462:226 463:253 464:253 465:245 466:169 467:118 468:17 485:24 486:142 487:253 488:254 489:253 490:253 491:253 492:253 493:254 494:253 495:253 496:49 514:18 515:117 516:238 517:253 518:253 519:253 520:200 521:117 522:79 523:87 524:2 543:38 544:231 545:253 546:222 547:103 548:36 570:47 571:231 572:255 573:249 574:60 597:44 598:228 599:253 600:249 601:103 624:14 625:229 626:253 627:253 628:128 652:147 653:253 654:247 655:176 656:8 680:118 681:253 682:176 #
-3.0613232749956008549673124880415e-14 157:26 158:147 159:255 160:91 181:37 182:118 183:118 184:215 185:249 186:253 187:253 188:250 189:222 205:46 206:54 207:112 208:222 209:245 210:253 211:253 212:253 213:253 214:253 215:253 216:253 217:252 218:99 232:224 233:242 234:244 235:253 236:253 237:253 238:253 239:253 240:253 241:253 242:253 243:253 244:253 245:253 246:104 260:241 261:253 262:253 263:253 264:253 265:253 266:253 267:253 268:253 269:253 270:253 271:253 272:253 273:243 274:64 287:150 288:252 289:253 290:253 291:253 292:253 293:253 294:253 295:253 296:253 297:253 298:237 299:141 300:116 301:145 315:248 316:253 317:253 318:253 319:253 320:253 321:253 322:253 323:253 324:253 325:253 326:246 327:128 328:31 343:208 344:253 345:253 346:253 347:253 348:253 349:253 350:253 351:253 352:253 353:253 354:253 355:253 356:225 357:187 371:24 372:244 373:253 374:253 375:253 376:253 377:253 378:253 379:253 380:253 381:253 382:253 383:253 384:253 385:248 386:192 387:32 400:241 401:253 402:253 403:253 404:253 405:253 406:253 407:253 408:253 409:253 410:253 411:253 412:253 413:253 414:253 415:110 428:211 429:253 430:253 431:253 432:253 433:253 434:237 435:161 436:65 437:65 438:165 439:253 440:253 441:253 442:253 443:207 456:89 457:249 458:253 459:253 460:253 461:253 462:88 466:13 467:166 468:253 469:253 470:253 471:247 472:60 485:235 486:253 487:253 488:253 489:215 490:42 495:63 496:253 497:253 498:253 499:240 513:235 514:253 515:253 516:209 517:22 522:8 523:182 524:253 525:253 526:253 527:220 541:151 542:253 543:253 544:253 545:179 546:33 549:7 550:139 551:253 552:253 553:253 554:253 555:110 569:105 570:253 571:253 572:253 573:253 574:176 575:124 576:57 577:176 578:253 579:253 580:253 581:253 582:241 583:42 597:43 598:228 599:253 600:253 601:253 602:253 603:253 604:253 605:253 606:253 607:253 608:253 609:251 610:148 626:43 627:229 628:253 629:253 630:253 631:253 632:253 633:253 634:253 635:253 636:252 637:148 655:42 656:229 657:253 658:253 659:253 660:253 661:253 662:253 663:249 664:147 684:42 685:163 686:253 687:253 688:253 689:253 690:162 691:41 #
-3.0613232749956008549673124880415e-14 150:10 151:53 152:179 153:253 154:253 155:255 156:253 157:253 158:253 159:253 160:253 161:213 162:87 163:2 174:26 175:145 176:145 177:145 178:227 179:252 180:252 181:252 182:252 183:253 184:252 185:252 186:252 187:252 188:252 189:252 190:252 191:23 201:2 202:160 203:252 204:252 205:252 206:252 207:252 208:252 209:236 210:216 211:211 212:96 213:96 214:96 215:96 216:215 217:252 218:252 219:23 229:36 230:252 231:252 232:252 233:252 234:252 235:252 236:252 237:107 238:26 242:10 243:78 244:233 245:252 246:252 247:23 257:105 258:252 259:252 260:252 261:252 262:252 263:252 264:252 265:252 266:218 267:87 269:113 270:194 271:252 272:252 273:252 274:252 275:23 285:3 286:60 287:169 288:180 289:111 290:224 291:252 292:252 293:252 294:252 295:222 296:193 297:230 298:252 299:252 300:252 301:187 302:60 303:6 315:23 316:17 317:182 318:252 319:252 320:252 321:252 322:252 323:253 324:252 325:252 326:252 327:252 328:252 329:167 344:49 345:252 346:252 347:252 348:252 349:252 350:252 351:253 352:252 353:252 354:252 355:252 356:252 357:200 358:60 372:49 373:252 374:252 375:252 376:252 377:252 378:252 379:253 380:252 381:252 382:252 383:252 384:252 385:252 386:243 387:21 400:49 401:252 402:252 403:252 404:252 405:252 406:252 407:253 408:241 409:57 410:11 411:98 412:224 413:252 414:252 415:81 428:55 429:253 430:253 431:253 432:253 433:242 434:183 435:116 440:130 441:253 442:253 443:253 444:11 455:91 456:217 457:252 458:160 459:113 460:108 461:10 468:31 469:225 470:252 471:252 472:11 483:157 484:252 485:252 486:252 487:134 488:6 496:46 497:234 498:252 499:252 500:11 511:157 512:252 513:252 514:252 515:252 516:134 517:5 524:153 525:252 526:252 527:252 528:11 539:157 540:252 541:252 542:252 543:252 544:252 545:135 546:32 551:15 552:207 553:252 554:252 555:226 556:9 567:123 568:252 569:252 570:252 571:252 572:252 573:252 574:224 575:35 578:14 579:116 580:252 581:252 582:252 583:110 595:7 596:144 597:252 598:252 599:252 600:252 601:252 602:252 603:121 605:53 606:174 607:252 608:252 609:252 610:173 611:5 624:7 625:144 626:252 627:252 628:252 629:252 630:252 631:235 632:217 633:239 634:252 635:252 636:252 637:133 638:22 653:6 654:58 655:180 656:252 657:252 658:252 659:253 660:252 661:252 662:252 663:252 664:77 665:5 683:4 684:115 685:131 686:131 687:195 688:252 689:177 690:109 691:11 692:3 #
-3.0613232749956008549673124880415e-14 157:88 158:193 159:191 160:255 161:94 179:21 180:45 183:30 184:169 185:250 186:254 187:254 188:232 189:133 207:39 208:196 209:176 210:185 211:240 212:254 213:253 214:204 215:64 216:17 217:4 236:61 237:248 238:254 239:254 240:188 241:127 263:16 264:150 265:254 266:254 267:193 268:33 291:168 292:250 293:254 294:158 295:12 320:192 321:254 322:240 323:61 348:91 349:145 350:245 351:167 352:17 378:78 379:244 380:161 407:147 408:251 409:63 435:48 436:204 437:155 464:88 465:218 466:6 492:76 493:254 494:145 495:3 520:80 521:254 522:173 548:74 549:254 550:119 569:140 570:24 575:7 576:138 577:234 578:67 596:31 597:228 598:11 602:8 603:129 604:254 605:160 624:65 625:235 626:118 627:9 628:18 629:79 630:140 631:254 632:204 633:56 652:152 653:254 654:254 655:211 656:231 657:254 658:254 659:189 660:36 680:24 681:172 682:254 683:254 684:254 685:202 686:118 687:13 #
3.0613232749956008549673124880415e-14 100:114 101:226 102:141 128:255 129:255 130:255 131:57 156:226 157:255 158:255 159:86 184:57 185:255 186:255 187:170 213:255 214:255 215:170 241:255 242:255 243:114 268:57 269:255 270:255 296:170 297:255 298:255 324:255 325:255 326:198 350:86 351:198 352:255 353:255 354:114 377:86 378:255 379:255 380:255 381:255 382:198 383:114 405:255 406:255 407:255 408:255 409:255 410:255 411:255 412:141 432:141 433:255 434:255 435:255 436:255 437:255 438:255 439:255 440:170 459:29 460:255 461:255 462:226 463:255 464:255 465:114 466:114 467:170 468:29 487:141 488:255 489:226 490:114 491:255 492:255 515:170 516:255 517:226 518:255 519:255 520:198 543:255 544:255 545:255 546:255 547:255 548:86 571:255 572:255 573:255 574:255 575:170 599:255 600:255 601:255 602:226 627:86 628:255 629:226 630:29 #
3.0613232749956008549673124880415e-14 100:22 101:212 102:187 103:11 128:71 129:253 130:253 131:120 156:5 157:237 158:253 159:122 184:25 185:242 186:253 187:139 212:37 213:245 214:253 215:209 240:71 241:253 242:253 243:136 268:130 269:253 270:253 271:83 296:142 297:253 298:213 299:9 322:37 323:125 324:251 325:253 326:220 327:20 349:67 350:229 351:254 352:253 353:253 354:253 355:224 356:15 376:76 377:254 378:254 379:255 380:254 381:254 382:254 383:254 384:44 403:41 404:227 405:253 406:253 407:254 408:253 409:236 410:246 411:186 412:2 430:9 431:177 432:253 433:229 434:152 435:254 436:253 437:140 438:15 439:9 458:84 459:253 460:249 461:96 462:152 463:254 464:253 465:56 486:123 487:253 488:159 489:55 490:253 491:254 492:216 493:9 514:165 515:253 516:156 517:202 518:253 519:254 520:68 541:29 542:229 543:253 544:235 545:253 546:253 547:182 548:2 569:96 570:253 571:253 572:253 573:253 574:216 575:21 597:12 598:219 599:253 600:253 601:246 602:73 626:81 627:235 628:186 629:73 #
3.0613232749956008549673124880415e-14 124:16 125:134 126:245 127:137 128:41 151:71 152:243 153:254 154:254 155:254 156:157 157:9 178:16 179:218 180:254 181:203 182:206 183:254 184:254 185:84 206:72 207:254 208:86 209:3 210:7 211:151 212:254 213:177 234:14 235:47 236:6 239:42 240:254 241:177 267:42 268:254 269:177 295:101 296:254 297:177 323:160 324:254 325:177 350:4 351:176 352:254 353:177 378:24 379:254 380:255 381:177 406:61 407:254 408:254 409:86 433:3 434:184 435:254 436:232 437:37 461:115 462:254 463:254 464:195 489:126 490:254 491:253 492:75 517:194 518:254 519:199 544:93 545:251 546:239 547:33 553:42 554:114 572:226 573:254 574:200 579:30 580:127 581:204 582:25 599:71 600:249 601:254 602:158 603:84 604:84 605:84 606:183 607:225 608:212 609:96 627:90 628:254 629:254 630:254 631:254 632:254 633:254 634:254 635:162 636:20 655:6 656:123 657:194 658:254 659:254 660:171 661:100 662:17 663:2 #
-3.0613232749956008549673124880415e-14 154:6 155:19 156:145 157:254 158:254 159:225 160:32 182:133 183:254 184:253 185:253 186:253 187:253 188:129 209:143 210:249 211:254 212:232 213:141 214:127 215:253 216:191 217:7 236:89 237:246 238:253 239:223 240:36 242:49 243:253 244:253 245:48 263:91 264:243 265:253 266:166 267:35 270:49 271:253 272:253 273:195 274:55 290:91 291:242 292:253 293:187 294:37 298:26 299:219 300:253 301:253 302:156 317:21 318:214 319:253 320:221 321:16 326:49 327:253 328:253 329:253 330:116 344:19 345:192 346:253 347:253 348:111 354:153 355:253 356:253 357:221 358:22 372:101 373:253 374:253 375:176 376:4 381:86 382:246 383:253 384:253 385:168 399:18 400:210 401:253 402:218 403:30 408:12 409:203 410:253 411:253 412:218 413:30 427:101 428:254 429:254 430:60 435:13 436:254 437:254 438:254 439:252 440:57 455:157 456:253 457:247 458:54 463:94 464:253 465:253 466:225 467:83 483:157 484:253 485:201 486:9 489:34 490:152 491:254 492:253 493:248 494:118 511:157 512:253 513:253 514:189 515:169 516:169 517:246 518:253 519:254 520:249 521:118 539:62 540:233 541:253 542:253 543:253 544:253 545:253 546:253 547:252 548:117 568:64 569:198 570:253 571:229 572:134 573:236 574:253 575:242 597:12 598:48 599:32 601:172 602:253 603:242 629:127 630:253 631:242 657:63 658:249 659:242 686:127 687:254 688:104 #
-3.0613232749956008549673124880415e-14 102:27 103:157 104:234 105:23 127:32 128:132 129:184 130:242 131:254 132:253 133:147 134:12 154:95 155:231 156:253 157:253 158:253 159:254 160:253 161:253 162:144 181:111 182:254 183:253 184:253 185:253 186:246 187:144 188:167 189:253 190:236 191:6 209:181 210:254 211:253 212:253 213:214 214:72 216:55 217:253 218:253 219:72 237:66 238:182 239:161 240:78 244:55 245:254 246:254 247:72 268:8 269:94 270:145 271:145 272:233 273:253 274:242 275:31 295:41 296:210 297:253 298:253 299:254 300:253 301:253 302:222 323:151 324:253 325:253 326:253 327:254 328:253 329:253 330:150 351:235 352:253 353:253 354:253 355:254 356:253 357:253 358:235 379:178 380:254 381:254 382:202 383:66 384:145 385:254 386:235 398:21 399:184 400:235 401:120 402:4 407:10 408:18 409:18 410:5 412:145 413:253 414:235 425:28 426:210 427:253 428:253 429:254 430:76 439:37 440:231 441:253 442:189 453:100 454:253 455:251 456:241 457:254 458:222 459:16 467:112 468:253 469:237 470:50 480:53 481:248 482:253 483:169 484:26 485:254 486:253 487:132 494:98 495:228 496:253 497:184 508:73 509:254 510:254 511:54 513:202 514:254 515:254 516:176 517:73 518:27 519:42 520:73 521:183 522:254 523:255 524:238 525:58 536:31 537:243 538:253 539:190 541:5 542:217 543:253 544:253 545:253 546:242 547:245 548:253 549:253 550:253 551:238 552:59 565:113 566:253 567:250 568:185 569:37 570:96 571:253 572:253 573:253 574:254 575:253 576:253 577:253 578:194 579:26 593:12 594:179 595:253 596:253 597:254 598:253 599:253 600:253 601:253 602:254 603:253 604:224 605:106 606:16 622:11 623:111 624:194 625:254 626:253 627:253 628:253 629:188 630:105 631:72 632:11 #
-3.0613232749956008549673124880415e-14 181:7 182:121 183:184 184:253 185:253 186:253 187:253 188:253 189:142 207:17 208:121 209:240 210:252 211:253 212:252 213:252 214:252 215:252 216:252 217:229 218:39 234:70 235:189 236:252 237:252 238:252 239:253 240:252 241:252 242:252 243:252 244:252 245:252 246:93 261:99 262:242 263:252 264:252 265:252 266:209 267:173 268:46 269:39 270:39 271:39 272:84 273:252 274:205 288:169 289:241 290:252 291:252 292:245 293:178 294:25 300:89 301:252 302:225 315:20 316:221 317:252 318:252 319:124 320:59 328:186 329:252 330:231 331:23 342:17 343:189 344:252 345:241 346:114 347:25 355:68 356:231 357:252 358:212 359:33 370:191 371:252 372:252 373:101 382:51 383:233 384:252 385:248 386:83 398:240 399:252 400:205 401:22 407:7 408:14 409:133 410:180 411:252 412:252 413:212 426:240 427:252 428:172 433:8 434:133 435:190 436:252 437:252 438:252 439:252 440:252 441:212 454:241 455:253 456:253 457:253 458:253 459:161 460:204 461:253 462:253 463:255 464:253 465:253 466:253 467:253 468:253 469:80 482:68 483:185 484:252 485:252 486:252 487:252 488:252 489:252 490:252 491:253 492:252 493:252 494:252 495:252 496:224 497:38 511:10 512:217 513:252 514:252 515:252 516:252 517:252 518:252 519:253 520:163 521:39 522:98 523:252 524:232 525:50 540:33 541:39 542:39 543:130 544:158 545:39 546:39 547:39 548:2 550:81 551:252 552:198 577:25 578:196 579:252 580:163 605:192 606:252 607:202 608:17 632:17 633:230 634:252 635:185 660:107 661:252 662:252 663:101 688:107 689:252 690:248 691:50 716:107 717:252 718:172 #
3.0613232749956008549673124880415e-14 148:8 149:94 150:162 151:254 152:214 153:133 154:191 155:133 156:128 176:157 177:253 178:253 179:253 180:253 181:253 182:253 183:253 184:249 185:74 187:12 204:157 205:253 206:253 207:253 208:253 209:253 210:253 211:253 212:254 213:244 214:83 215:133 232:157 233:253 234:253 235:253 236:253 237:253 238:253 239:253 240:254 241:253 242:253 243:205 260:121 261:193 262:236 263:253 264:253 265:253 266:253 267:253 268:254 269:253 270:253 271:176 290:147 291:218 292:253 293:253 294:253 295:253 296:254 297:253 298:243 299:60 318:12 319:83 320:174 321:253 322:253 323:253 324:254 325:253 326:246 327:109 348:131 349:253 350:253 351:253 352:254 353:253 354:253 355:205 375:32 376:226 377:253 378:253 379:253 380:202 381:253 382:253 383:249 384:230 385:55 403:189 404:253 405:253 406:201 407:75 408:6 409:11 410:104 411:253 412:253 413:245 414:46 429:3 430:100 431:226 432:254 433:198 434:12 438:93 439:245 440:254 441:254 442:169 457:49 458:253 459:253 460:245 461:32 467:21 468:142 469:253 470:217 471:21 485:49 486:253 487:253 488:151 496:61 497:253 498:253 499:36 513:129 514:253 515:181 516:16 524:61 525:253 526:253 527:36 541:170 542:253 543:60 552:147 553:253 554:233 555:27 569:170 570:253 571:116 572:14 578:46 579:154 580:236 581:253 582:133 597:129 598:253 599:253 600:146 602:37 603:86 604:92 605:136 606:189 607:253 608:253 609:153 610:9 625:49 626:253 627:253 628:201 629:201 630:233 631:253 632:254 633:253 634:253 635:253 636:253 637:60 653:5 654:79 655:253 656:253 657:253 658:253 659:253 660:254 661:253 662:253 663:232 664:116 665:6 682:3 683:196 684:253 685:253 686:195 687:253 688:138 689:184 690:57 691:9 #
3.0613232749956008549673124880415e-14 146:4 147:16 148:130 149:145 150:255 151:254 152:255 153:254 154:163 155:35 173:71 174:199 175:253 176:253 177:253 178:253 179:253 180:253 181:253 182:253 183:188 184:3 201:130 202:253 203:253 204:253 205:253 206:241 207:235 208:235 209:248 210:253 211:253 212:125 215:7 216:19 217:11 229:130 230:253 231:253 232:253 233:174 234:38 237:102 238:247 239:253 240:179 243:106 244:253 245:210 246:23 257:54 258:239 259:253 260:253 261:241 262:77 263:26 266:186 267:253 268:224 269:30 270:54 271:239 272:253 273:253 274:141 286:119 287:253 288:253 289:253 290:253 291:237 292:137 293:38 294:196 295:253 296:253 297:49 298:88 299:253 300:253 301:253 302:124 314:5 315:155 316:235 317:253 318:253 319:253 320:253 321:253 322:253 323:253 324:253 325:84 326:176 327:253 328:253 329:183 330:6 344:47 345:155 346:235 347:253 348:253 349:253 350:253 351:253 352:253 353:253 354:253 355:253 356:253 357:124 374:47 375:155 376:208 377:253 378:253 379:253 380:253 381:253 382:253 383:253 384:253 385:24 404:14 405:68 406:158 407:238 408:253 409:253 410:253 411:253 412:253 413:141 414:5 435:99 436:253 437:253 438:253 439:253 440:253 441:253 442:196 443:9 462:19 463:183 464:253 465:253 466:191 467:206 468:253 469:253 470:253 471:143 472:2 490:162 491:253 492:253 493:227 494:29 495:18 496:158 497:246 498:253 499:253 500:106 517:47 518:242 519:253 520:253 521:70 525:230 526:253 527:253 528:129 545:102 546:253 547:253 548:189 549:7 553:230 554:253 555:253 556:129 572:44 573:245 574:253 575:253 576:130 580:136 581:250 582:253 583:253 584:81 600:50 601:253 602:253 603:253 604:55 606:89 607:151 608:250 609:253 610:253 611:95 612:1 628:28 629:221 630:253 631:253 632:240 633:236 634:250 635:253 636:253 637:253 638:95 639:1 657:36 658:222 659:253 660:253 661:253 662:253 663:253 664:207 665:84 666:1 686:96 687:162 688:253 689:253 690:150 691:84 692:4 #
9.3821113434868506694988083016088e-15 153:11 154:130 155:207 156:254 157:254 158:138 159:12 175:56 176:115 177:67 178:15 180:61 181:200 182:253 183:254 184:253 185:253 186:253 187:117 202:56 203:246 204:253 205:253 206:219 207:210 208:237 209:253 210:253 211:254 212:253 213:253 214:253 215:244 216:46 230:61 231:250 232:253 233:253 234:253 235:253 236:253 237:253 238:253 239:242 240:189 241:253 242:253 243:253 244:55 259:186 260:253 261:253 262:253 263:253 264:253 265:253 266:253 267:205 268:189 269:253 270:253 271:253 272:55 287:65 288:211 289:253 290:253 291:253 292:253 293:253 294:253 295:254 296:253 297:253 298:253 299:171 300:12 316:32 317:253 318:253 319:253 320:253 321:253 322:253 323:254 324:253 325:253 326:243 327:46 344:19 345:219 346:253 347:253 348:253 349:253 350:253 351:254 352:253 353:253 354:245 355:54 373:15 374:152 375:247 376:253 377:253 378:253 379:254 380:253 381:253 382:253 383:211 384:75 402:126 403:251 404:253 405:253 406:253 407:129 408:33 409:76 410:249 411:253 412:203 413:10 429:32 430:231 431:254 432:254 433:254 434:129 438:167 439:254 440:254 441:195 457:132 458:253 459:253 460:242 461:106 462:10 466:7 467:192 468:253 469:245 470:26 485:166 486:253 487:253 488:118 495:166 496:253 497:253 498:190 513:156 514:253 515:244 516:13 523:7 524:192 525:253 526:232 527:35 541:56 542:253 543:253 544:171 552:89 553:253 554:253 555:66 569:12 570:211 571:253 572:225 573:62 579:20 580:194 581:253 582:253 583:66 598:142 599:252 600:253 601:247 602:135 603:108 604:12 605:12 606:118 607:199 608:253 609:253 610:253 611:66 627:145 628:253 629:253 630:253 631:255 632:253 633:253 634:253 635:253 636:253 637:251 638:190 639:26 655:3 656:133 657:200 658:253 659:254 660:253 661:253 662:253 663:253 664:253 665:175 685:10 686:81 687:158 688:253 689:253 690:253 691:229 692:105 693:3 #
3.0613232749956008549673124880415e-14 101:92 102:249 127:27 128:198 129:248 130:248 155:111 156:254 157:254 158:131 182:69 183:243 184:254 185:203 186:27 210:184 211:254 212:248 213:77 238:228 239:254 240:206 265:58 266:242 267:254 268:134 293:171 294:254 295:224 296:39 321:174 322:254 323:247 324:61 349:249 350:254 351:236 352:50 377:249 378:254 379:198 380:13 404:15 405:250 406:254 407:255 408:189 409:148 432:131 433:254 434:254 435:249 436:253 437:243 438:141 439:4 460:131 461:254 462:254 463:48 464:120 465:254 466:254 467:130 488:131 489:254 490:206 491:22 492:29 493:218 494:254 495:130 516:131 517:254 518:254 519:93 521:166 522:254 523:130 544:28 545:250 546:254 547:202 548:29 549:187 550:254 551:130 573:226 574:254 575:254 576:214 577:254 578:254 579:130 601:42 602:227 603:254 604:254 605:254 606:254 607:120 630:42 631:154 632:254 633:164 634:114 #
3.0613232749956008549673124880415e-14 181:52 182:243 183:132 189:137 190:254 191:100 208:49 209:187 210:253 211:132 216:6 217:199 218:253 219:145 235:11 236:167 237:253 238:238 239:56 244:79 245:253 246:241 247:31 263:154 264:253 265:253 266:64 271:33 272:230 273:253 274:168 289:35 290:182 291:236 292:253 293:230 294:18 298:56 299:195 300:253 301:236 302:71 317:49 318:253 319:253 320:229 321:54 326:100 327:253 328:253 329:88 344:13 345:175 346:253 347:229 348:55 354:157 355:253 356:233 357:40 372:141 373:253 374:253 375:77 381:10 382:194 383:253 384:146 400:157 401:253 402:253 403:143 404:73 408:6 409:181 410:253 411:232 412:41 428:100 429:253 430:253 431:253 432:250 433:242 434:242 435:242 436:244 437:253 438:253 439:147 457:24 458:122 459:214 460:242 461:242 462:242 463:242 464:250 465:254 466:235 467:41 492:145 493:253 494:147 519:76 520:254 521:253 522:96 547:122 548:254 549:237 550:32 575:122 576:254 577:200 603:214 604:245 605:26 630:37 631:246 632:242 658:110 659:253 660:242 686:161 687:253 688:190 714:230 715:195 716:6 #
2.1606593578695618555421965901311e-14 98:47 99:232 100:195 101:156 102:127 103:28 125:7 126:184 127:254 128:254 129:238 130:254 131:218 132:73 153:109 154:254 155:223 156:78 157:18 158:145 159:248 160:224 161:31 180:87 181:248 182:202 183:12 187:92 188:254 189:188 207:84 208:245 209:223 210:72 215:115 216:254 217:196 235:157 236:254 237:153 242:19 243:202 244:232 245:38 263:107 264:181 265:12 269:2 270:167 271:254 272:111 296:19 297:167 298:254 299:196 300:18 324:202 325:254 326:196 327:16 350:16 351:173 352:254 353:126 354:18 377:49 378:209 379:254 380:151 404:17 405:197 406:235 407:99 432:147 433:254 434:117 459:160 460:248 461:117 462:2 486:114 487:254 488:121 513:70 514:232 515:136 516:140 517:254 518:80 526:5 527:59 528:28 540:44 541:244 542:201 543:118 544:248 545:254 546:218 547:42 553:35 554:166 555:254 556:147 567:14 568:230 569:241 570:138 571:254 572:172 573:169 574:254 575:254 576:117 577:79 578:24 579:43 580:117 581:225 582:254 583:229 584:13 594:10 595:131 596:254 597:175 598:249 599:208 600:25 601:6 602:125 603:214 604:255 605:254 606:241 607:245 608:254 609:215 610:124 611:13 622:59 623:254 624:254 625:254 626:178 627:23 632:81 633:155 634:155 635:140 636:58 #
3.0613232749956008549673124880415e-14 127:25 128:201 129:253 130:253 131:135 154:122 155:218 156:252 157:252 158:252 159:229 160:28 181:9 182:253 183:252 184:251 185:244 186:252 187:252 188:118 208:22 209:197 210:253 211:252 212:166 213:120 214:252 215:252 216:118 236:45 237:252 238:253 239:199 240:10 241:120 242:252 243:181 244:14 264:13 265:161 266:253 267:234 268:91 269:213 270:252 271:74 294:253 295:252 296:252 297:252 298:252 299:74 322:76 323:236 324:252 325:252 326:128 327:4 351:208 352:252 353:252 354:29 378:62 379:234 380:252 381:252 382:117 405:62 406:255 407:253 408:253 409:253 410:178 432:11 433:173 434:253 435:237 436:231 437:252 438:239 439:61 460:141 461:252 462:247 463:93 464:67 465:252 466:252 467:74 487:113 488:221 489:252 490:79 492:15 493:252 494:252 495:74 513:9 514:153 515:250 516:238 517:90 520:15 521:252 522:252 523:74 540:9 541:144 542:252 543:252 544:102 548:33 549:252 550:252 551:74 568:75 569:252 570:252 571:204 572:28 574:56 575:134 576:210 577:252 578:252 579:74 594:6 595:160 596:242 597:252 598:252 599:247 600:238 601:238 602:245 603:252 604:252 605:252 606:172 607:48 622:15 623:252 624:252 625:252 626:252 627:252 628:252 629:225 630:208 631:207 632:111 633:59 634:7 650:15 651:252 652:252 653:146 654:103 655:103 656:103 657:43 #
2.1335056362224528474605751740061e-14 129:97 130:144 131:236 132:196 133:72 134:22 155:21 156:163 157:254 158:253 159:253 160:253 161:253 162:165 182:81 183:223 184:253 185:254 186:253 187:253 188:166 189:253 190:165 209:79 210:250 211:253 212:253 213:242 214:126 215:10 216:23 217:253 218:155 236:83 237:246 238:253 239:253 240:157 241:39 244:23 245:193 246:19 263:20 264:218 265:253 266:253 267:154 268:7 272:102 273:57 291:56 292:253 293:253 294:208 295:6 300:10 319:124 320:253 321:253 322:99 346:17 347:231 348:253 349:245 350:26 374:23 375:253 376:253 377:145 402:23 403:254 404:254 405:147 430:23 431:253 432:253 433:245 434:26 458:4 459:181 460:253 461:253 462:142 463:31 464:100 465:163 466:155 487:55 488:249 489:253 490:252 491:246 492:253 493:255 494:251 495:148 516:199 517:253 518:253 519:253 520:253 521:254 522:253 523:154 544:199 545:253 546:253 547:253 548:253 549:254 550:253 551:154 572:190 573:252 574:253 575:253 576:253 577:254 578:250 579:190 580:5 601:165 602:253 603:253 604:253 605:249 606:107 629:122 630:253 631:253 632:253 633:139 657:21 658:210 659:253 660:157 661:15 #
2.4110065226299519949231424207642e-14 156:1 157:86 158:239 159:234 160:41 162:7 163:3 184:121 185:253 186:237 187:204 188:95 190:146 191:187 192:14 210:12 211:147 212:254 213:253 214:62 215:32 216:112 217:13 218:241 219:244 220:26 237:47 238:195 239:253 240:230 241:71 242:6 244:10 245:61 246:253 247:205 264:35 265:191 266:253 267:228 268:60 273:145 274:253 275:180 290:5 291:76 292:209 293:251 294:173 295:30 300:30 301:255 302:242 303:55 317:8 318:127 319:254 320:253 321:136 328:125 329:254 330:221 344:9 345:173 346:253 347:251 348:136 349:9 355:62 356:245 357:251 358:179 371:8 372:173 373:253 374:253 375:192 376:64 377:32 380:44 381:64 382:79 383:239 384:253 385:218 399:57 400:253 401:253 402:253 403:254 404:253 405:245 406:238 407:238 408:249 409:253 410:253 411:253 412:253 413:35 427:107 428:254 429:254 430:254 431:255 432:254 433:246 434:238 435:238 436:250 437:254 438:254 439:250 440:238 441:50 455:18 456:157 457:201 458:167 459:137 460:63 461:32 463:10 464:209 465:253 466:253 467:96 491:159 492:254 493:253 494:110 495:6 518:145 519:251 520:254 521:160 522:6 545:95 546:251 547:253 548:219 549:24 572:47 573:199 574:254 575:219 576:25 599:42 600:218 601:253 602:215 603:54 626:40 627:199 628:253 629:244 630:65 654:125 655:254 656:245 657:80 682:60 683:204 684:171 #
-3.0613232749956008549673124880415e-14 183:34 184:138 185:170 186:253 187:201 188:128 189:19 209:38 210:151 211:253 212:252 213:252 214:252 215:252 216:253 217:236 218:65 236:134 237:240 238:252 239:253 240:252 241:252 242:252 243:252 244:253 245:252 246:183 262:9 263:166 264:240 265:252 266:252 267:253 268:252 269:185 270:119 271:234 272:253 273:252 274:208 275:17 289:53 290:233 291:252 292:252 293:252 294:252 295:190 296:64 297:6 299:230 300:253 301:252 302:252 303:45 316:62 317:243 318:255 319:253 320:253 321:245 322:126 325:49 326:180 327:253 328:255 329:253 330:253 331:46 343:45 344:236 345:252 346:253 347:252 348:218 349:79 351:26 352:120 353:228 354:252 355:252 356:253 357:252 358:252 359:45 370:13 371:172 372:252 373:252 374:253 375:187 376:19 377:26 378:70 379:222 380:252 381:252 382:252 383:252 384:253 385:252 386:233 387:33 398:47 399:252 400:252 401:252 402:234 403:17 404:100 405:224 406:252 407:253 408:252 409:252 410:252 411:252 412:253 413:235 414:64 426:47 427:252 428:252 429:252 430:251 431:230 432:246 433:252 434:252 435:253 436:252 437:252 438:252 439:252 440:253 441:102 454:22 455:199 456:249 457:253 458:255 459:253 460:253 461:245 462:241 463:255 464:253 465:253 466:253 467:243 468:106 484:75 485:196 486:207 487:206 488:123 489:117 490:203 491:253 492:252 493:252 494:252 495:64 516:19 517:136 518:252 519:253 520:252 521:233 522:89 523:6 544:164 545:252 546:252 547:253 548:252 549:141 570:11 571:189 572:246 573:252 574:252 575:253 576:157 577:6 598:34 599:253 600:253 601:253 602:253 603:231 625:43 626:212 627:252 628:252 629:252 630:252 631:188 652:151 653:246 654:253 655:252 656:252 657:227 658:130 680:207 681:252 682:253 683:252 684:227 685:102 708:19 709:232 710:253 711:231 712:48 #
3.0613232749956008549673124880415e-14 125:16 126:50 127:173 128:236 129:141 152:4 153:155 154:248 155:173 156:66 157:166 158:59 180:76 181:254 182:113 183:16 185:62 186:99 187:11 207:59 208:250 209:160 210:1 212:42 213:254 214:106 235:176 236:236 237:47 240:48 241:97 242:234 243:18 262:5 263:215 264:74 269:12 270:207 271:108 290:13 291:240 292:7 298:141 299:137 318:3 319:209 320:115 323:24 324:85 325:28 326:102 327:201 347:151 348:246 349:61 350:115 351:250 352:252 353:185 354:102 355:231 375:20 376:231 377:252 378:254 379:182 380:156 381:105 382:210 383:168 404:115 405:254 406:252 407:247 408:248 409:237 410:246 411:37 431:64 432:245 433:112 434:47 435:43 436:59 437:140 438:246 439:28 459:180 460:141 465:3 466:167 467:182 468:25 486:11 487:233 488:17 494:52 495:241 496:63 514:18 515:255 516:7 523:147 524:129 542:45 543:240 544:6 551:147 552:222 553:7 570:24 571:181 572:24 579:90 580:206 581:8 599:203 600:168 601:20 607:179 608:118 627:126 628:247 629:242 630:163 631:105 632:127 633:127 634:189 635:132 636:5 656:42 657:157 658:239 659:245 660:242 661:184 662:86 663:13 #
-2.5328669205712379252194797779925e-14 208:9 209:18 210:38 211:136 212:136 213:180 214:255 215:194 216:123 217:18 218:5 234:13 235:140 236:203 237:253 238:253 239:253 240:253 241:253 242:253 243:253 244:253 245:253 246:96 247:8 261:49 262:200 263:253 264:253 265:253 266:253 267:253 268:253 269:253 270:253 271:253 272:253 273:253 274:253 275:132 289:159 290:253 291:253 292:253 293:253 294:253 295:253 296:253 297:253 298:188 299:215 300:224 301:253 302:253 303:170 316:44 317:242 318:253 319:253 320:253 321:203 322:164 323:82 324:47 325:47 326:5 327:22 328:93 329:253 330:253 331:170 344:104 345:253 346:253 347:253 348:94 349:13 354:98 355:167 356:241 357:253 358:253 359:170 371:1 372:173 373:253 374:253 375:99 376:7 377:6 378:4 379:34 380:160 381:243 382:252 383:253 384:253 385:253 386:253 387:168 399:36 400:253 401:253 402:253 403:253 404:253 405:243 406:212 407:253 408:253 409:253 410:253 411:253 412:253 413:253 414:150 415:23 427:30 428:240 429:253 430:253 431:253 432:253 433:253 434:253 435:253 436:253 437:253 438:253 439:253 440:253 441:204 442:26 456:131 457:211 458:253 459:253 460:253 461:253 462:253 463:253 464:253 465:253 466:253 467:253 468:233 469:27 485:17 486:100 487:176 488:176 489:176 490:102 491:59 492:82 493:234 494:253 495:253 496:224 520:122 521:253 522:253 523:249 524:85 547:107 548:248 549:253 550:253 551:133 574:27 575:216 576:253 577:253 578:190 579:5 601:28 602:214 603:253 604:253 605:242 606:20 628:27 629:215 630:253 631:253 632:203 633:55 656:155 657:253 658:253 659:238 660:76 683:179 684:251 685:253 686:253 687:101 711:225 712:253 713:244 714:79 715:11 739:225 740:251 741:123 #
1.4320256030899663153859758607727e-14 121:5 122:124 123:245 124:255 125:239 126:194 127:155 128:75 129:21 149:145 150:253 151:253 152:253 153:253 154:253 155:253 156:253 157:226 158:81 159:4 177:219 178:253 179:253 180:253 181:253 182:253 183:253 184:253 185:253 186:253 187:110 204:65 205:249 206:253 207:192 208:62 209:34 210:111 211:153 212:242 213:254 214:253 215:217 216:14 232:164 233:253 234:253 235:124 240:35 241:226 242:253 243:253 244:98 259:6 260:210 261:253 262:253 263:175 269:121 270:253 271:253 272:128 287:11 288:253 289:253 290:253 291:245 292:84 296:2 297:191 298:253 299:253 300:128 315:11 316:253 317:253 318:253 319:253 320:249 321:239 322:240 323:239 324:240 325:253 326:253 327:215 328:19 343:3 344:148 345:254 346:253 347:253 348:253 349:253 350:254 351:253 352:253 353:254 354:253 355:210 356:86 372:2 373:200 374:253 375:253 376:253 377:253 378:253 379:253 380:253 381:253 382:253 383:253 384:253 385:179 386:12 401:161 402:253 403:253 404:216 405:204 406:253 407:253 408:251 409:248 410:253 411:253 412:253 413:253 414:141 415:2 429:220 430:253 431:172 432:26 433:40 434:231 435:96 436:56 438:80 439:138 440:254 441:253 442:254 443:64 456:56 457:248 458:253 459:124 461:7 462:25 467:70 468:242 469:253 470:253 471:148 484:65 485:253 486:253 487:124 495:24 496:63 497:253 498:253 499:163 512:65 513:254 514:254 515:176 516:7 524:164 525:253 526:254 527:115 540:45 541:243 542:253 543:253 544:166 545:36 551:54 552:165 553:253 554:253 555:64 569:192 570:254 571:253 572:254 573:227 574:134 575:134 576:134 577:197 578:234 579:247 580:254 581:253 582:221 583:5 597:6 598:194 599:253 600:253 601:253 602:254 603:253 604:253 605:254 606:253 607:253 608:254 609:253 610:109 626:7 627:173 628:254 629:253 630:254 631:253 632:253 633:254 634:253 635:253 636:214 637:146 638:1 655:28 656:88 657:209 658:253 659:253 660:253 661:253 662:208 663:88 664:7 #
-2.9784026408745250054368348054479e-14 158:186 159:212 160:13 185:51 186:229 187:194 188:8 212:17 213:229 214:253 215:129 240:160 241:253 242:154 243:9 267:53 268:254 269:253 270:69 295:117 296:254 297:136 323:137 324:231 350:26 351:237 352:231 378:187 379:253 380:189 406:208 407:253 408:63 433:133 434:255 435:138 460:30 461:229 462:253 463:64 488:79 489:253 490:186 491:6 516:162 517:253 518:66 543:11 544:204 545:253 546:46 571:24 572:255 573:248 574:42 599:98 600:253 601:184 627:139 628:253 629:152 655:97 656:253 657:69 683:13 684:212 685:69 #
1.3670937285808873648117925078448e-14 155:132 156:254 157:255 158:165 159:155 160:45 180:7 181:73 182:192 183:252 184:254 185:254 186:254 187:254 188:244 189:21 206:9 207:125 208:201 209:254 210:254 211:254 212:254 213:254 214:254 215:254 216:254 217:58 234:119 235:254 236:254 237:254 238:254 239:166 240:141 241:196 242:228 243:254 244:254 245:155 262:121 263:254 264:254 265:254 266:254 267:28 270:148 271:254 272:254 273:38 290:43 291:196 292:254 293:254 294:254 295:83 297:27 298:241 299:254 300:202 301:7 319:3 320:205 321:254 322:254 323:249 324:126 325:114 326:254 327:248 328:39 348:9 349:167 350:254 351:254 352:254 353:254 354:254 355:237 377:6 378:200 379:254 380:254 381:254 382:223 383:45 406:178 407:254 408:254 409:254 410:210 433:64 434:239 435:254 436:254 437:254 438:246 439:90 460:95 461:240 462:254 463:210 464:174 465:254 466:254 467:247 468:26 486:5 487:77 488:250 489:254 490:192 491:50 492:14 493:193 494:254 495:254 496:138 514:68 515:254 516:254 517:194 518:16 521:75 522:253 523:254 524:239 525:19 541:39 542:241 543:254 544:239 545:31 550:199 551:254 552:254 553:24 569:58 570:254 571:254 572:63 577:12 578:202 579:254 580:215 581:11 597:58 598:254 599:254 600:9 604:8 605:147 606:254 607:253 608:106 625:58 626:254 627:254 628:35 629:31 630:68 631:123 632:202 633:254 634:242 635:143 653:29 654:222 655:254 656:237 657:238 658:254 659:254 660:254 661:243 662:146 682:39 683:190 684:197 685:237 686:254 687:254 688:170 689:43 #
-3.0613232749956008549673124880415e-14 153:42 154:169 155:255 156:254 157:229 158:146 159:22 179:15 180:114 181:248 182:253 183:253 184:253 185:253 186:253 187:150 206:8 207:187 208:253 209:253 210:253 211:253 212:253 213:253 214:253 215:250 216:120 234:137 235:253 236:253 237:253 238:253 239:253 240:253 241:253 242:253 243:253 244:188 261:27 262:236 263:253 264:253 265:253 266:253 267:253 268:253 269:253 270:253 271:253 272:188 289:9 290:179 291:253 292:253 293:253 294:253 295:253 296:253 297:253 298:253 299:253 300:184 318:51 319:205 320:221 321:253 322:253 323:253 324:253 325:253 326:253 327:237 328:31 348:124 349:253 350:253 351:253 352:253 353:253 354:253 355:247 356:99 375:24 376:224 377:253 378:253 379:253 380:253 381:253 382:253 383:253 384:188 403:49 404:253 405:253 406:253 407:253 408:253 409:253 410:253 411:253 412:230 413:51 431:49 432:253 433:253 434:253 435:253 436:197 437:54 438:216 439:253 440:253 441:150 456:4 457:103 458:79 459:3 460:53 461:223 462:232 463:108 464:8 466:105 467:253 468:253 469:150 483:2 484:139 485:253 486:243 494:169 495:253 496:253 497:150 511:6 512:253 513:253 514:154 521:23 522:224 523:253 524:253 525:150 539:6 540:253 541:253 542:147 543:11 548:3 549:81 550:253 551:253 552:246 553:42 567:6 568:253 569:253 570:253 571:170 573:28 575:24 576:82 577:253 578:253 579:253 580:188 595:6 596:253 597:253 598:253 599:245 600:211 601:229 602:211 603:226 604:253 605:253 606:253 607:242 608:66 623:3 624:183 625:253 626:253 627:253 628:253 629:253 630:253 631:253 632:253 633:253 634:253 635:107 652:13 653:156 654:246 655:253 656:253 657:253 658:253 659:253 660:253 661:237 662:96 663:3 682:85 683:166 684:253 685:253 686:253 687:253 688:142 689:29 #
-3.0613232749956008549673124880415e-14 127:16 128:109 129:255 130:253 131:232 132:47 154:21 155:181 156:252 157:253 158:252 159:252 160:232 161:42 180:105 181:182 182:201 183:252 184:252 185:253 186:252 187:252 188:252 189:144 208:62 209:108 210:108 211:211 212:252 213:253 214:252 215:252 216:252 217:144 241:191 242:252 243:252 244:252 245:144 268:42 269:233 270:252 271:252 272:252 273:104 292:21 293:37 294:78 295:181 296:221 297:253 298:252 299:246 300:215 319:105 320:206 321:253 322:252 323:252 324:252 325:253 326:252 327:215 346:135 347:253 348:253 349:255 350:253 351:253 352:253 353:255 354:222 355:41 373:94 374:247 375:252 376:252 377:253 378:252 379:252 380:252 381:253 382:97 401:109 402:252 403:252 404:252 405:253 406:252 407:252 408:252 409:253 410:231 411:51 429:109 430:252 431:252 432:252 433:253 434:252 435:252 436:252 437:253 438:252 439:71 458:125 459:144 460:144 463:120 464:253 465:255 466:253 467:133 485:32 486:52 491:37 492:252 493:253 494:252 495:215 512:1 513:211 514:231 515:78 516:37 519:37 520:252 521:253 522:252 523:215 540:1 541:252 542:252 543:252 544:252 545:84 547:37 548:252 549:253 550:252 551:215 568:63 569:253 570:253 571:253 572:253 573:255 574:253 575:253 576:253 577:255 578:253 579:217 596:20 597:252 598:252 599:252 600:252 601:253 602:252 603:252 604:252 605:253 606:252 607:91 624:1 625:133 626:226 627:252 628:252 629:253 630:252 631:252 632:252 633:253 634:179 635:20 654:31 655:128 656:252 657:253 658:252 659:252 660:252 661:191 662:15 #
3.0613232749956008549673124880415e-14 161:71 162:234 163:40 183:4 188:25 189:242 190:235 191:37 211:36 216:151 217:254 218:94 234:14 235:10 243:34 244:239 245:254 246:20 261:14 262:230 263:125 271:100 272:254 273:199 274:6 289:111 290:254 291:125 298:66 299:247 300:232 301:17 317:193 318:254 319:91 326:116 327:254 328:156 344:62 345:253 346:243 347:21 353:10 354:216 355:243 356:70 372:142 373:254 374:103 381:137 382:254 383:184 400:145 401:254 402:183 403:54 405:8 406:51 407:168 408:171 409:253 410:246 411:37 428:13 429:227 430:254 431:249 432:205 433:213 434:254 435:252 436:254 437:254 438:158 457:82 458:163 459:218 460:194 461:178 462:95 463:51 464:217 465:254 466:77 487:16 491:180 492:254 493:158 494:7 518:27 519:252 520:251 521:32 546:144 547:254 548:151 573:29 574:237 575:254 576:50 601:94 602:255 603:194 604:4 629:215 630:254 631:30 656:83 657:254 658:200 659:2 684:164 685:254 686:159 #
2.6589191678284836292416798738263e-15 154:39 155:169 156:254 157:255 158:254 159:151 160:8 164:132 165:70 180:47 181:166 182:248 183:253 184:204 185:183 186:99 187:218 188:105 191:105 192:251 193:70 207:114 208:244 209:253 210:227 211:155 212:6 215:10 216:74 218:64 219:231 220:242 221:29 234:115 235:249 236:253 237:162 238:15 245:10 246:219 247:253 248:109 261:99 262:249 263:245 264:125 265:7 272:10 273:201 274:253 275:215 276:9 289:221 290:253 291:166 299:9 300:171 301:253 302:248 303:60 316:49 317:248 318:253 319:62 327:170 328:253 329:248 330:105 345:163 346:253 347:206 348:94 349:16 354:96 355:249 356:253 357:107 373:17 374:166 375:245 376:253 377:246 378:184 379:121 380:97 381:125 382:251 383:253 384:178 385:10 403:14 404:121 405:174 406:253 407:253 408:253 409:254 410:253 411:210 412:8 435:154 436:254 437:255 438:254 439:232 440:17 462:42 463:251 464:253 465:232 466:251 467:253 468:56 489:37 490:222 491:253 492:232 493:42 494:245 495:253 496:26 516:38 517:221 518:253 519:248 520:74 521:137 522:252 523:240 524:21 543:23 544:220 545:253 546:250 547:112 548:61 549:254 550:253 551:71 570:26 571:175 572:253 573:249 574:172 575:62 576:240 577:254 578:164 579:9 597:7 598:104 599:253 600:253 601:181 602:69 603:239 604:253 605:142 606:2 625:104 626:253 627:253 628:192 629:115 630:253 631:252 632:144 652:51 653:248 654:253 655:253 656:229 657:253 658:252 659:145 680:71 681:253 682:253 683:253 684:253 685:244 686:94 #
-2.9387392850041452209533560991324e-14 181:19 182:112 183:231 184:232 185:156 186:127 187:5 208:2 209:167 210:253 211:253 212:254 213:253 214:253 215:149 216:12 236:50 237:253 238:240 239:137 240:78 241:85 242:174 243:186 244:223 263:10 264:213 265:253 266:109 271:3 272:95 291:97 292:253 293:222 294:12 300:76 301:38 319:255 320:254 321:78 327:70 328:231 329:158 346:8 347:254 348:191 349:12 353:10 354:80 355:243 356:253 357:105 374:128 375:254 376:106 380:19 381:129 382:253 383:253 384:253 401:37 402:248 403:222 404:18 407:16 408:201 409:253 410:253 411:247 412:101 429:40 430:253 431:195 434:53 435:195 436:254 437:253 438:253 439:176 457:40 458:254 459:134 460:67 461:156 462:246 463:231 464:232 465:254 466:235 467:15 485:37 486:233 487:254 488:253 489:239 490:165 491:31 492:201 493:251 494:124 515:101 516:167 517:24 519:98 520:254 521:233 546:7 547:197 548:244 549:85 574:115 575:253 576:157 601:71 602:246 603:231 604:76 628:17 629:211 630:250 631:106 656:185 657:253 658:146 683:123 684:250 685:195 686:16 710:38 711:254 712:162 713:18 #
-3.0613232749956008549673124880415e-14 175:22 176:43 177:43 178:254 179:252 180:146 181:43 182:43 203:127 204:250 205:250 206:252 207:250 208:250 209:250 210:250 231:127 232:250 233:250 234:252 235:250 236:250 237:250 238:250 239:107 258:57 259:210 260:250 261:250 262:252 263:250 264:250 265:250 266:250 267:239 268:112 286:85 287:250 288:250 289:250 290:252 291:250 292:250 293:250 294:250 295:252 296:237 297:105 298:141 299:210 300:177 314:85 315:252 316:252 317:252 318:254 319:238 320:231 321:252 322:252 323:254 324:252 325:252 326:252 327:252 328:254 329:167 342:85 343:250 344:250 345:250 346:252 347:166 348:84 349:166 350:237 351:252 352:250 353:250 354:250 355:250 356:252 357:166 370:42 371:188 372:250 373:250 374:252 375:208 376:63 377:85 378:230 379:252 380:250 381:250 382:250 383:250 384:252 385:166 399:127 400:250 401:250 402:252 403:250 404:209 405:223 406:250 407:252 408:250 409:250 410:250 411:250 412:252 413:223 414:84 427:127 428:250 429:250 430:252 431:250 432:250 433:250 434:250 435:252 436:250 437:250 438:250 439:250 440:252 441:250 442:125 457:177 458:254 459:252 460:252 461:252 462:252 463:219 464:252 465:252 466:252 467:252 468:255 469:238 470:105 486:252 487:250 488:208 489:166 490:237 491:113 492:250 493:250 494:250 495:250 496:252 497:194 498:42 514:146 515:250 516:125 518:210 519:146 520:250 521:250 522:250 523:250 524:252 525:250 526:125 542:14 543:83 544:41 546:210 547:14 548:138 549:165 550:195 551:250 552:252 553:250 554:125 574:210 576:14 577:20 578:27 579:217 580:252 581:250 582:125 607:212 608:255 609:252 610:146 611:14 635:210 636:252 637:250 638:208 639:55 663:210 664:252 665:250 666:125 691:210 692:252 693:194 694:41 719:210 720:252 721:166 #
-3.0613232749956008549673124880415e-14 154:58 155:201 156:212 157:255 158:146 180:39 181:125 182:211 183:254 184:254 185:254 186:250 187:146 207:112 208:251 209:253 210:250 211:207 212:125 213:99 214:213 215:252 216:18 234:81 235:236 236:254 237:200 238:83 242:36 243:254 244:57 261:61 262:231 263:254 264:171 265:10 270:8 271:220 272:161 288:13 289:189 290:254 291:172 292:14 298:18 299:243 300:123 316:63 317:254 318:218 319:15 326:136 327:227 328:119 344:133 345:254 346:95 351:13 352:23 354:225 355:222 356:199 372:131 373:254 374:78 379:30 380:34 381:157 382:253 383:254 384:252 385:96 400:60 401:254 402:168 403:14 405:33 406:48 407:194 408:233 409:254 410:254 411:254 412:254 413:132 428:26 429:204 430:254 431:231 432:218 433:250 434:254 435:254 436:254 437:254 438:254 439:254 440:245 441:36 457:35 458:223 459:254 460:254 461:254 462:254 463:254 464:254 465:254 466:254 467:254 468:136 486:22 487:112 488:118 489:119 490:237 491:254 492:254 493:254 494:254 495:240 496:27 518:72 519:234 520:254 521:254 522:254 523:122 547:160 548:254 549:254 550:182 551:11 574:65 575:251 576:254 577:206 578:34 601:17 602:238 603:254 604:226 605:62 628:2 629:190 630:254 631:252 632:125 656:132 657:254 658:254 659:150 683:75 684:246 685:254 686:200 687:15 #
1.6690465369508857628447098996374e-14 103:31 104:201 105:246 106:37 130:77 131:241 132:254 133:111 157:13 158:207 159:254 160:191 161:45 184:16 185:198 186:254 187:238 188:9 212:174 213:254 214:235 215:61 238:8 239:143 240:249 241:254 242:140 266:105 267:254 268:254 269:165 293:68 294:250 295:254 296:186 297:36 321:140 322:254 323:228 324:28 348:55 349:233 350:254 351:165 352:95 353:108 354:127 355:163 356:151 357:18 375:4 376:193 377:254 378:254 379:254 380:254 381:254 382:254 383:254 384:254 385:121 403:169 404:254 405:254 406:237 407:125 408:125 409:115 410:41 411:174 412:254 413:189 431:228 432:254 433:197 434:44 439:124 440:254 441:143 458:109 459:250 460:254 461:80 466:49 467:245 468:244 469:71 485:24 486:225 487:254 488:149 489:3 493:24 494:210 495:254 496:157 513:44 514:254 515:254 516:97 520:24 521:162 522:255 523:254 524:10 541:44 542:254 543:250 544:56 547:67 548:205 549:254 550:230 551:63 552:2 569:44 570:254 571:254 572:118 573:33 574:94 575:253 576:254 577:228 578:41 597:13 598:179 599:254 600:254 601:254 602:254 603:254 604:159 605:37 626:12 627:139 628:254 629:254 630:248 631:123 632:8 #
3.0613232749956008549673124880415e-14 177:211 178:140 186:14 187:69 205:156 206:225 214:183 215:253 216:51 233:205 234:227 242:219 243:245 244:40 260:40 261:249 262:227 270:219 271:231 272:18 288:90 289:254 290:182 297:10 298:225 299:231 300:18 316:144 317:254 318:139 325:108 326:254 327:218 344:219 345:254 346:151 347:27 348:27 349:27 350:19 352:7 353:231 354:254 355:218 371:37 372:243 373:254 374:254 375:254 376:254 377:254 378:236 379:193 380:208 381:254 382:254 383:218 400:181 401:249 402:254 403:253 404:251 405:254 406:255 407:254 408:254 409:254 410:254 411:218 429:38 430:79 431:73 432:57 433:79 434:79 435:103 436:166 437:124 438:254 439:218 465:81 466:254 467:219 493:56 494:254 495:218 521:53 522:254 523:218 549:53 550:254 551:218 577:53 578:254 579:249 580:45 605:53 606:254 607:241 608:34 633:53 634:254 635:254 636:52 661:59 662:254 663:254 664:52 689:140 690:254 691:240 692:33 717:111 718:254 719:188 #
3.0613232749956008549673124880415e-14 153:142 154:254 155:254 156:157 157:125 158:125 159:125 160:125 161:137 162:254 163:248 164:57 181:209 182:253 183:253 184:253 185:253 186:253 187:253 188:253 189:253 190:253 191:253 192:117 209:209 210:253 211:253 212:253 213:253 214:253 215:253 216:253 217:253 218:245 219:135 220:6 237:155 238:253 239:253 240:199 241:253 242:253 243:253 244:253 245:242 246:71 265:49 266:233 267:253 268:173 269:253 270:253 271:253 272:190 273:73 294:202 295:253 296:253 297:253 298:253 299:172 300:12 322:202 323:253 324:253 325:236 326:145 327:13 349:65 350:218 351:253 352:253 353:160 376:25 377:221 378:253 379:253 380:253 381:71 403:71 404:215 405:253 406:253 407:253 408:253 409:171 431:122 432:253 433:235 434:157 435:210 436:253 437:201 458:165 459:244 460:236 461:72 463:102 464:253 465:201 485:19 486:233 487:237 488:138 491:89 492:253 493:201 512:18 513:195 514:253 515:141 518:12 519:205 520:253 521:201 540:128 541:253 542:241 543:28 546:89 547:253 548:253 549:201 567:87 568:249 569:253 570:75 571:10 572:27 573:134 574:234 575:253 576:247 577:114 595:248 596:253 597:253 598:43 599:105 600:253 601:253 602:253 603:253 604:118 623:248 624:253 625:253 626:253 627:253 628:253 629:253 630:253 631:209 632:28 651:248 652:253 653:253 654:253 655:253 656:253 657:248 658:210 659:27 679:121 680:247 681:253 682:253 683:206 684:123 685:22 #
3.0613232749956008549673124880415e-14 120:28 121:195 122:254 123:254 124:254 125:239 126:59 127:27 148:118 149:253 150:253 151:253 152:253 153:253 154:253 155:179 156:27 176:118 177:253 178:253 179:253 180:253 181:253 182:253 183:253 184:193 185:136 204:118 205:253 206:216 207:213 208:213 209:247 210:253 211:253 212:253 213:196 232:73 233:154 234:11 237:139 238:253 239:253 240:253 241:218 242:53 265:20 266:253 267:253 268:253 269:254 270:135 293:3 294:105 295:253 296:253 297:254 298:135 322:79 323:253 324:253 325:254 326:135 350:79 351:253 352:253 353:254 354:135 378:79 379:253 380:253 381:254 382:135 406:80 407:254 408:254 409:243 410:105 433:10 434:159 435:253 436:253 437:196 461:20 462:253 463:253 464:253 465:196 489:202 490:253 491:253 492:253 493:205 494:40 495:176 496:235 497:235 498:235 499:69 500:28 517:215 518:253 519:253 520:253 521:254 522:253 523:253 524:253 525:253 526:253 527:253 528:204 529:45 544:98 545:238 546:253 547:253 548:253 549:255 550:253 551:253 552:253 553:253 554:253 555:253 556:204 557:44 569:14 570:51 571:215 572:238 573:253 574:253 575:253 576:253 577:250 578:233 579:233 580:203 581:38 582:38 583:38 584:26 596:37 597:200 598:253 599:253 600:253 601:253 602:253 603:253 604:253 605:135 624:118 625:253 626:253 627:253 628:253 629:253 630:253 631:178 632:116 652:27 653:193 654:253 655:253 656:253 657:237 658:57 659:27 #
-2.5270529306693799120063822024957e-16 122:9 123:106 124:174 125:254 126:202 127:133 128:12 129:2 130:13 131:13 132:42 133:133 134:133 135:29 136:2 149:40 150:223 151:253 152:253 153:253 154:253 155:253 156:249 157:156 158:253 159:253 160:253 161:253 162:253 163:253 164:24 176:6 177:182 178:253 179:253 180:183 181:214 182:253 183:253 184:254 185:253 186:253 187:229 188:217 189:182 190:96 191:96 192:9 204:37 205:253 206:253 207:181 208:16 209:79 210:205 211:251 212:223 213:84 214:84 215:28 232:37 233:253 234:253 235:60 239:69 240:35 260:26 261:229 262:253 263:152 289:129 290:253 291:240 292:80 317:49 318:253 319:253 320:201 321:60 345:5 346:136 347:253 348:253 349:244 350:74 374:3 375:104 376:231 377:253 378:249 379:184 380:59 404:41 405:226 406:253 407:254 408:250 409:64 410:5 428:16 429:20 434:208 435:252 436:254 437:253 438:112 439:9 455:4 456:171 457:205 463:92 464:220 465:253 466:253 467:159 483:25 484:253 485:214 486:14 492:5 493:158 494:253 495:237 496:140 497:12 511:19 512:230 513:253 514:158 521:7 522:155 523:253 524:253 525:89 540:123 541:253 542:239 543:102 544:49 550:9 551:189 552:253 553:236 554:37 568:25 569:225 570:253 571:253 572:237 573:102 574:8 578:53 579:198 580:253 581:253 582:48 597:47 598:226 599:253 600:253 601:253 602:221 603:218 604:161 605:218 606:240 607:253 608:253 609:144 610:7 626:17 627:117 628:233 629:253 630:253 631:253 632:254 633:253 634:253 635:253 636:175 637:34 656:50 657:132 658:132 659:248 660:254 661:253 662:178 663:110 664:4 #
-3.0613232749956008549673124880415e-14 94:5 95:31 96:130 97:161 98:255 99:255 100:255 101:212 102:22 121:27 122:214 123:253 124:253 125:253 126:253 127:253 128:253 129:253 130:165 131:2 149:161 150:253 151:250 152:235 153:143 154:111 155:147 156:250 157:253 158:253 159:100 177:85 178:146 179:85 184:205 185:253 186:253 187:154 211:46 212:234 213:253 214:253 215:139 238:11 239:161 240:253 241:253 242:240 243:26 265:33 266:161 267:253 268:253 269:238 270:72 290:9 291:50 292:78 293:232 294:253 295:253 296:253 297:82 317:27 318:192 319:253 320:253 321:253 322:253 323:253 324:253 325:149 326:36 345:99 346:253 347:253 348:253 349:253 350:253 351:253 352:253 353:253 354:229 355:137 356:6 373:28 374:185 375:185 376:97 377:61 378:61 379:98 380:185 381:242 382:253 383:253 384:198 385:47 409:89 410:243 411:253 412:253 413:174 414:4 425:44 426:81 427:81 428:81 429:30 438:88 439:244 440:253 441:253 442:112 452:6 453:234 454:253 455:253 456:253 457:226 458:190 459:28 467:121 468:253 469:253 470:176 471:2 480:4 481:210 482:253 483:253 484:253 485:253 486:253 487:229 488:217 489:217 490:124 491:94 492:94 493:94 494:94 495:156 496:253 497:253 498:253 499:5 509:17 510:108 511:253 512:253 513:253 514:253 515:253 516:253 517:253 518:253 519:253 520:253 521:253 522:253 523:253 524:253 525:253 526:253 527:5 538:11 539:210 540:253 541:253 542:253 543:253 544:253 545:253 546:253 547:253 548:253 549:253 550:253 551:253 552:253 553:253 554:204 555:3 567:11 568:108 569:253 570:253 571:253 572:253 573:253 574:253 575:253 576:253 577:253 578:253 579:253 580:253 581:204 582:15 596:2 597:30 598:213 599:253 600:253 601:253 602:253 603:253 604:253 605:253 606:253 607:253 608:146 609:15 626:4 627:91 628:129 629:220 630:253 631:253 632:253 633:211 634:129 635:20 636:1 #
-3.0613232749956008549673124880415e-14 122:49 123:171 124:254 125:254 126:254 127:254 128:254 129:254 130:255 131:254 132:254 133:161 150:99 151:253 152:253 153:253 154:253 155:253 156:253 157:253 158:253 159:253 160:253 161:253 162:102 178:155 179:253 180:253 181:253 182:253 183:253 184:253 185:253 186:253 187:253 188:253 189:242 190:59 206:161 207:253 208:253 209:253 210:253 211:253 212:229 213:149 214:149 215:128 216:103 217:67 233:144 234:251 235:253 236:253 237:253 238:225 239:55 240:20 260:41 261:241 262:253 263:220 264:162 265:55 266:23 288:112 289:253 290:220 291:41 316:219 317:253 318:155 343:95 344:251 345:253 346:183 347:9 348:38 349:60 350:72 351:69 352:172 353:99 354:202 355:202 356:135 357:78 358:6 359:32 371:118 372:253 373:253 374:253 375:203 376:225 377:243 378:253 379:224 380:253 381:253 382:253 383:253 384:253 385:137 386:80 387:210 399:30 400:214 401:253 402:253 403:253 404:253 405:253 406:253 407:208 408:194 409:194 410:194 411:194 412:194 413:194 414:229 415:250 416:87 428:89 429:249 430:253 431:253 432:236 433:160 434:71 435:17 442:57 443:253 444:117 457:235 458:185 459:78 460:52 470:20 471:253 472:117 484:18 485:238 486:221 487:42 497:5 498:124 499:253 500:117 512:112 513:253 514:253 515:221 516:53 517:23 525:111 526:253 527:252 528:102 540:112 541:253 542:253 543:253 544:253 545:183 546:27 547:6 550:19 551:23 552:34 553:216 554:253 555:240 568:46 569:242 570:253 571:253 572:253 573:253 574:253 575:173 576:150 577:150 578:222 579:237 580:216 581:253 582:252 583:154 597:102 598:177 599:235 600:253 601:253 602:253 603:253 604:253 605:253 606:253 607:253 608:253 609:253 610:227 627:149 628:252 629:253 630:253 631:253 632:253 633:253 634:253 635:253 636:249 637:166 638:48 656:105 657:163 658:253 659:253 660:253 661:226 662:123 663:123 664:44 #
3.0613232749956008549673124880415e-14 208:6 209:66 210:128 211:207 212:233 213:233 214:233 215:216 216:48 217:11 235:15 236:191 237:253 238:255 239:253 240:253 241:253 242:253 243:255 244:253 245:114 246:22 263:154 264:253 265:253 266:254 267:173 268:50 269:42 270:130 271:192 272:227 273:253 274:128 289:25 290:202 291:251 292:212 293:80 300:81 301:198 302:228 303:69 316:72 317:214 318:168 319:111 329:189 330:253 331:86 342:20 343:154 344:250 345:176 346:27 357:83 358:253 359:148 370:198 371:211 372:145 373:36 385:66 386:253 387:182 397:72 398:241 399:49 413:66 414:253 415:59 424:8 425:188 426:106 441:102 442:217 443:18 452:64 453:113 469:189 470:181 471:18 480:172 481:32 496:43 497:243 498:128 508:175 509:64 523:18 524:182 525:239 526:28 536:130 537:213 538:106 551:168 552:243 553:55 564:18 565:107 566:243 567:183 568:148 569:36 576:40 577:70 578:237 579:213 580:53 594:58 595:63 596:222 597:244 598:191 599:191 600:191 601:191 602:192 603:191 604:170 605:142 606:63 624:17 625:21 626:21 627:74 628:127 629:127 630:21 631:21 632:2 #
1.2818158143598821267150702883705e-16 178:114 179:113 180:88 186:13 187:113 188:255 189:253 190:222 191:38 204:26 205:225 206:253 207:252 208:195 214:13 215:189 216:253 217:252 218:252 219:84 232:29 233:252 234:253 235:252 236:195 242:29 243:252 244:253 245:252 246:252 247:84 259:7 260:131 261:252 262:253 263:252 264:180 270:29 271:252 272:253 273:252 274:252 275:84 287:135 288:252 289:252 290:253 291:252 292:55 298:29 299:252 300:253 301:252 302:220 303:37 315:198 316:253 317:253 318:255 319:215 320:31 325:26 326:207 327:253 328:255 329:253 330:133 343:197 344:252 345:252 346:253 347:121 353:104 354:252 355:252 356:253 357:252 358:103 370:67 371:240 372:252 373:252 374:253 375:27 381:197 382:252 383:252 384:253 385:252 386:164 398:163 399:252 400:252 401:252 402:253 403:43 405:4 406:29 407:92 408:169 409:234 410:252 411:252 412:240 413:223 414:49 426:85 427:252 428:252 429:252 430:253 431:214 432:140 433:153 434:252 435:253 436:252 437:252 438:252 439:252 440:140 455:111 456:216 457:253 458:255 459:253 460:253 461:253 462:253 463:255 464:253 465:253 466:253 467:253 468:141 484:34 485:167 486:168 487:167 488:167 489:74 490:27 491:206 492:252 493:252 494:252 495:252 496:140 519:88 520:246 521:252 522:252 523:252 524:166 525:6 548:225 549:252 550:252 551:252 552:178 553:9 576:225 577:252 578:252 579:252 580:140 603:114 604:253 605:253 606:253 607:253 631:75 632:243 633:252 634:252 635:252 659:26 660:231 661:252 662:252 663:252 687:38 688:234 689:252 690:252 691:236 716:146 717:220 718:112 719:50 #
5.8589388705173228633947407319302e-16 68:21 69:51 70:132 71:214 72:253 73:193 74:71 95:82 96:223 97:253 98:252 99:253 100:252 101:253 102:252 103:123 123:214 124:253 125:224 126:162 127:82 128:41 129:21 130:223 131:254 132:151 151:50 152:50 153:20 158:162 159:253 160:232 186:123 187:254 188:192 214:203 215:253 216:151 241:11 242:213 243:254 244:151 269:132 270:252 271:253 272:70 296:21 297:254 298:253 299:142 323:21 324:162 325:253 326:252 327:20 351:132 352:253 353:244 354:40 378:123 379:253 380:252 381:81 404:21 405:214 406:253 407:254 408:172 431:21 432:203 433:253 434:252 435:131 436:10 457:11 458:92 459:254 460:253 461:244 462:81 484:41 485:173 486:252 487:253 488:212 489:81 511:31 512:173 513:255 514:253 515:183 516:20 527:11 528:51 529:113 530:213 539:152 540:252 541:253 542:252 543:102 544:102 545:102 546:102 547:203 548:203 549:203 550:203 551:203 552:203 553:203 554:203 555:213 556:252 557:253 558:111 567:193 568:253 569:255 570:253 571:255 572:253 573:254 574:253 575:254 576:253 577:254 578:253 579:254 580:253 581:254 582:253 583:203 584:203 585:41 595:92 596:192 597:253 598:252 599:253 600:252 601:151 602:151 603:151 604:151 605:112 606:111 607:50 608:50 609:50 610:50 #
-6.9314385066966713368063853619948e-16 177:8 178:72 179:244 180:114 188:113 189:244 190:161 204:6 205:155 206:252 207:252 208:220 209:67 210:67 211:29 213:27 214:125 215:176 216:236 217:252 218:220 219:18 232:114 233:252 234:252 235:252 236:252 237:252 238:252 239:229 240:180 241:207 242:252 243:252 244:252 245:252 246:252 247:156 259:62 260:243 261:252 262:252 263:252 264:252 265:252 266:252 267:253 268:252 269:252 270:252 271:252 272:252 273:252 274:252 275:249 276:31 286:15 287:219 288:252 289:252 290:252 291:252 292:252 293:252 294:252 295:253 296:252 297:252 298:252 299:252 300:252 301:252 302:252 303:202 304:12 313:12 314:179 315:252 316:252 317:252 318:252 319:252 320:252 321:225 322:117 323:55 324:84 325:199 326:252 327:252 328:252 329:252 330:252 331:89 341:34 342:252 343:252 344:252 345:252 346:252 347:242 348:107 349:15 353:100 354:252 355:252 356:252 357:252 358:207 359:6 369:34 370:252 371:252 372:252 373:252 374:179 375:9 380:12 381:174 382:252 383:252 384:252 385:246 386:39 397:9 398:162 399:252 400:252 401:178 402:14 408:148 409:252 410:252 411:252 412:252 413:159 426:9 427:33 428:33 429:12 435:78 436:243 437:252 438:252 439:252 440:214 441:26 463:255 464:253 465:253 466:253 467:246 468:48 489:21 490:115 491:253 492:252 493:252 494:247 495:98 517:121 518:252 519:253 520:252 521:252 522:230 544:101 545:250 546:252 547:253 548:252 549:252 550:116 571:32 572:218 573:252 574:252 575:253 576:252 577:163 578:4 599:208 600:252 601:252 602:252 603:253 604:114 605:10 626:86 627:251 628:252 629:252 630:252 631:170 632:7 653:34 654:231 655:252 656:252 657:252 658:252 659:43 681:56 682:252 683:252 684:252 685:252 686:137 709:7 710:119 711:243 712:252 713:185 714:5 #
-3.0613232749956008549673124880415e-14 189:10 190:25 191:25 192:25 193:3 209:1 210:42 211:118 212:118 213:118 214:118 215:168 216:173 217:221 218:254 219:254 220:254 221:204 222:122 236:95 237:183 238:254 239:254 240:254 241:254 242:254 243:254 244:254 245:254 246:254 247:254 248:254 249:254 250:254 262:32 263:126 264:252 265:254 266:254 267:254 268:254 269:254 270:254 271:254 272:254 273:254 274:254 275:254 276:254 277:254 278:170 289:11 290:191 291:254 292:255 293:254 294:254 295:254 296:255 297:254 298:254 299:254 300:254 301:254 302:254 303:195 304:163 305:79 306:1 317:91 318:254 319:254 320:254 321:254 322:254 323:254 324:254 325:254 326:252 327:226 328:167 329:89 330:53 331:2 344:10 345:194 346:254 347:254 348:254 349:254 350:254 351:254 352:234 353:157 354:68 372:25 373:254 374:254 375:254 376:254 377:254 378:249 379:152 380:51 400:13 401:228 402:254 403:254 404:255 405:254 406:254 407:207 408:25 429:81 430:229 431:254 432:254 433:254 434:254 435:254 436:223 437:51 455:54 456:205 457:215 458:201 459:254 460:254 461:254 462:254 463:254 464:254 465:181 466:28 483:118 484:254 485:254 486:254 487:254 488:254 489:254 490:254 491:254 492:254 493:254 494:85 511:174 512:254 513:254 514:254 515:254 516:254 517:254 518:254 519:254 520:254 521:254 522:80 539:168 540:254 541:254 542:254 543:254 544:254 545:254 546:254 547:254 548:254 549:254 550:28 567:23 568:166 569:254 570:254 571:254 572:254 573:254 574:254 575:254 576:254 577:231 578:16 596:28 597:140 598:218 599:254 600:254 601:254 602:254 603:254 604:254 605:97 626:7 627:101 628:172 629:198 630:198 631:198 632:95 633:6 #
-3.0613232749956008549673124880415e-14 188:155 189:253 190:173 191:12 205:20 206:32 207:32 208:32 209:4 210:20 211:32 212:52 213:111 214:171 215:190 216:253 217:251 218:251 219:149 229:48 230:127 231:127 232:127 233:205 234:253 235:251 236:251 237:141 238:205 239:253 240:251 241:251 242:251 243:251 244:253 245:251 246:251 247:188 257:134 258:251 259:251 260:251 261:251 262:253 263:251 264:251 265:251 266:251 267:253 268:251 269:251 270:251 271:251 272:253 273:251 274:251 275:188 285:253 286:251 287:251 288:251 289:251 290:253 291:251 292:251 293:251 294:251 295:193 296:114 297:251 298:251 299:251 300:253 301:251 302:251 303:188 313:195 314:253 315:253 316:229 317:158 318:159 319:158 320:158 321:59 322:59 327:159 328:255 329:253 330:253 331:129 341:24 342:181 343:220 344:66 354:8 355:170 356:253 357:251 358:251 359:129 382:64 383:251 384:253 385:251 386:251 387:31 408:68 409:221 410:229 411:251 412:253 413:251 414:140 415:4 435:60 436:228 437:251 438:251 439:251 440:253 441:251 442:126 457:60 458:255 459:253 460:253 461:253 462:253 463:255 464:253 465:253 466:253 467:253 468:255 469:253 470:253 471:253 472:153 484:48 485:228 486:253 487:251 488:251 489:251 490:251 491:253 492:251 493:251 494:251 495:251 496:253 497:251 498:251 499:251 500:231 512:32 513:204 514:253 515:251 516:251 517:251 518:251 519:253 520:251 521:251 522:251 523:251 524:253 525:251 526:251 527:140 528:47 541:119 542:253 543:251 544:251 545:251 546:251 547:253 548:251 549:219 550:188 551:89 552:91 553:188 554:109 555:4 570:253 571:251 572:251 573:251 574:251 575:193 576:94 577:47 596:24 597:194 598:255 599:253 600:253 601:253 602:193 624:64 625:251 626:253 627:251 628:251 629:204 630:23 652:64 653:251 654:253 655:251 656:251 657:109 680:8 681:169 682:253 683:223 684:31 685:4 709:59 710:95 711:82 #
3.0613232749956008549673124880415e-14 125:6 126:128 127:198 128:185 129:117 130:5 151:12 152:56 153:134 154:253 155:254 156:253 157:253 158:101 159:7 179:174 180:194 181:253 182:253 183:254 184:253 185:253 186:253 187:147 207:206 208:253 209:253 210:230 211:206 212:205 213:212 214:253 215:204 216:12 235:177 236:230 237:83 238:38 241:28 242:233 243:253 244:89 263:20 264:37 270:135 271:253 272:201 273:14 298:10 299:195 300:253 301:48 322:93 323:52 324:42 327:135 328:253 329:48 346:32 347:208 348:230 349:230 350:252 351:243 352:240 353:213 354:89 355:61 356:253 357:48 372:82 373:208 374:245 375:253 376:253 377:253 378:253 379:254 380:253 381:253 382:251 383:245 384:253 385:48 398:2 399:106 400:255 401:254 402:254 403:254 404:250 405:242 406:127 407:123 408:133 409:242 410:250 411:254 412:254 413:169 426:25 427:253 428:253 429:247 430:194 431:109 432:67 438:73 439:212 440:253 441:217 442:32 454:25 455:253 456:253 457:175 467:182 468:253 469:253 470:139 482:25 483:253 484:139 485:24 494:10 495:195 496:253 497:253 498:36 510:25 511:227 512:24 521:9 522:155 523:253 524:253 525:233 526:27 538:25 539:245 540:157 549:72 550:253 551:253 552:253 553:168 566:5 567:175 568:244 569:120 570:61 571:70 572:12 575:45 576:154 577:235 578:253 579:253 580:253 581:128 595:40 596:221 597:253 598:243 599:247 600:223 601:218 602:218 603:238 604:253 605:253 606:253 607:230 608:64 609:7 624:39 625:170 626:253 627:253 628:253 629:253 630:253 631:254 632:253 633:185 634:122 635:18 653:3 654:104 655:34 656:58 657:242 658:253 659:249 660:63 661:5 #
6.2544507332534212916863330876225e-15 118:12 119:96 120:234 121:253 122:255 123:133 124:96 125:36 126:36 146:32 147:251 148:251 149:251 150:253 151:251 152:251 153:212 154:212 155:191 156:67 174:16 175:126 176:126 177:126 178:253 179:251 180:251 181:251 182:251 183:253 184:236 185:127 186:16 206:31 207:31 208:110 209:244 210:251 211:253 212:251 213:251 214:225 215:123 237:83 238:193 239:253 240:251 241:251 242:251 243:251 244:100 267:60 268:230 269:253 270:253 271:253 272:255 273:122 296:47 297:62 298:229 299:251 300:253 301:224 302:16 318:48 319:127 320:127 321:127 322:127 323:128 324:111 326:221 327:251 328:253 329:251 330:126 344:16 345:162 346:234 347:251 348:251 349:251 350:251 351:253 352:248 353:221 354:248 355:251 356:253 357:251 358:236 359:27 372:64 373:251 374:253 375:251 376:251 377:251 378:251 379:253 380:251 381:251 382:251 383:251 384:253 385:251 386:251 387:31 400:124 401:253 402:255 403:181 404:158 405:19 407:159 408:158 409:206 410:253 411:253 412:255 413:253 414:253 415:31 428:221 429:251 430:253 431:62 437:32 438:102 439:240 440:253 441:251 442:251 443:31 456:221 457:251 458:253 459:141 467:158 468:253 469:251 470:251 471:31 484:83 485:251 486:253 487:228 488:32 494:96 495:240 496:253 497:251 498:251 499:31 512:64 513:251 514:253 515:251 516:126 522:221 523:251 524:253 525:251 526:251 527:31 541:100 542:255 543:253 544:173 545:12 548:92 549:253 550:253 551:253 552:255 553:253 554:126 570:233 571:251 572:251 573:157 574:32 575:92 576:236 577:251 578:251 579:251 580:253 581:251 582:126 598:96 599:251 600:251 601:251 602:251 603:253 604:251 605:251 606:251 607:251 608:253 609:235 610:63 626:12 627:149 628:220 629:251 630:251 631:253 632:251 633:251 634:156 635:129 636:253 637:220 656:127 657:251 658:251 659:253 660:132 661:94 662:12 664:253 665:220 #
3.7724908939245117393766435540207e-15 126:114 127:226 128:255 129:255 130:170 152:86 153:255 154:255 155:255 156:255 157:255 158:255 159:226 179:86 180:255 181:255 182:255 183:255 184:198 185:86 186:198 187:255 188:170 206:57 207:255 208:255 209:255 210:170 211:57 215:141 216:255 217:29 234:170 235:255 236:255 237:86 243:86 244:255 245:86 262:170 263:255 264:141 267:57 268:86 269:114 270:57 271:170 272:255 273:86 290:170 291:255 292:141 293:141 294:226 295:255 296:255 297:255 298:255 299:255 300:226 318:170 319:255 320:255 321:255 322:255 323:255 324:255 325:255 326:255 327:255 328:198 346:170 347:255 348:255 349:255 350:255 351:255 352:255 353:255 354:255 355:255 356:255 357:114 374:226 375:255 376:255 377:255 378:255 379:255 380:255 381:255 382:141 383:141 384:255 385:255 386:57 401:86 402:255 403:255 404:255 405:255 406:255 407:255 408:226 409:114 412:141 413:255 414:170 429:226 430:255 431:255 432:198 433:170 434:141 435:86 436:29 441:198 442:255 443:29 457:255 458:255 459:170 469:170 470:255 471:86 484:86 485:255 486:255 487:86 496:29 497:226 498:255 499:86 512:86 513:255 514:255 515:86 523:29 524:226 525:255 526:255 527:29 541:255 542:255 543:226 544:57 549:29 550:114 551:226 552:255 553:255 554:114 569:198 570:255 571:255 572:255 573:170 574:86 575:86 576:141 577:226 578:255 579:255 580:255 581:141 597:141 598:255 599:255 600:255 601:255 602:255 603:255 604:255 605:255 606:255 607:255 608:86 626:198 627:255 628:255 629:255 630:255 631:255 632:255 633:198 634:170 635:29 654:29 655:141 656:226 657:198 658:170 659:114 660:114 661:29 #
-3.0613232749956008549673124880415e-14 148:16 149:191 150:254 151:254 152:254 153:255 154:254 155:254 156:254 157:254 158:254 159:203 160:121 161:23 176:108 177:254 178:254 179:254 180:254 181:254 182:254 183:254 184:254 185:254 186:254 187:254 188:254 189:207 190:14 204:86 205:254 206:200 207:162 208:162 209:197 210:162 211:162 212:162 213:162 214:188 215:254 216:254 217:254 218:99 232:1 233:4 234:2 237:2 242:2 243:231 244:254 245:254 246:103 270:35 271:241 272:254 273:254 274:28 297:4 298:170 299:254 300:254 301:172 302:8 321:31 322:53 323:53 324:53 325:133 326:254 327:254 328:251 329:38 345:7 346:20 347:100 348:182 349:235 350:254 351:254 352:254 353:254 354:254 355:254 356:213 357:7 372:48 373:203 374:254 375:254 376:254 377:254 378:254 379:254 380:254 381:254 382:254 383:254 384:254 385:179 386:9 399:33 400:232 401:254 402:254 403:254 404:254 405:254 406:254 407:254 408:254 409:254 410:254 411:254 412:254 413:254 414:83 427:58 428:254 429:254 430:254 431:254 432:254 433:254 434:254 435:249 436:170 437:48 438:48 439:115 440:254 441:254 442:125 455:58 456:254 457:254 458:254 459:254 460:254 461:254 462:185 463:57 467:68 468:254 469:254 470:125 483:48 484:231 485:254 486:228 487:203 488:115 489:24 490:4 495:187 496:254 497:254 498:108 512:25 513:52 514:22 521:5 522:133 523:249 524:254 525:222 526:17 538:28 548:13 549:116 550:254 551:254 552:252 553:65 565:41 566:239 567:142 574:17 575:68 576:191 577:254 578:254 579:248 580:103 593:124 594:254 595:241 596:107 597:5 598:5 599:5 600:5 601:96 602:204 603:254 604:254 605:254 606:252 607:103 621:11 622:211 623:254 624:254 625:254 626:254 627:254 628:254 629:254 630:254 631:254 632:254 633:222 634:65 650:56 651:226 652:254 653:254 654:254 655:254 656:254 657:254 658:252 659:220 660:115 661:17 679:14 680:108 681:157 682:250 683:254 684:186 685:157 686:76 #
-3.0613232749956008549673124880415e-14 236:3 237:54 238:81 239:121 240:81 241:81 242:121 243:121 244:121 245:111 246:60 247:21 248:21 249:1 264:128 265:254 266:254 267:254 268:254 269:254 270:254 271:254 272:254 273:254 274:254 275:254 276:254 277:178 278:136 289:20 290:78 291:199 292:252 293:254 294:238 295:147 296:85 297:125 298:125 299:164 300:125 301:213 302:224 303:224 304:224 305:236 306:224 316:41 317:230 318:254 319:200 320:82 321:169 322:37 333:28 343:47 344:229 345:254 346:164 347:10 371:193 372:254 373:167 374:8 399:236 400:251 401:55 427:115 428:254 429:157 430:19 455:21 456:227 457:254 458:247 459:130 460:61 461:17 484:37 485:165 486:247 487:254 488:254 489:226 490:200 491:116 492:57 493:16 494:6 514:40 515:85 516:238 517:254 518:254 519:254 520:254 521:254 522:201 523:164 524:51 543:30 544:240 545:254 546:254 547:254 548:254 549:254 550:254 551:254 552:246 553:26 572:199 573:254 574:254 575:254 576:254 577:254 578:254 579:250 580:174 581:20 600:10 601:20 602:20 603:20 604:20 605:20 606:20 607:18 #
-1.2796147741468288548517471647491e-14 206:42 207:125 208:228 209:254 210:254 211:228 212:38 233:43 234:230 235:253 236:253 237:162 238:135 239:220 240:205 242:76 243:106 260:43 261:229 262:253 263:162 264:39 265:3 267:9 268:10 269:18 270:202 271:227 287:44 288:229 289:253 290:121 291:4 296:19 297:195 298:253 299:227 315:105 316:253 317:121 318:4 323:21 324:193 325:253 326:253 327:227 343:105 344:253 345:145 349:24 350:122 351:228 352:253 353:253 354:253 355:227 371:105 372:253 373:240 374:105 375:85 376:189 377:225 378:253 379:192 380:78 381:182 382:253 383:227 399:19 400:192 401:253 402:253 403:253 404:253 405:193 406:78 407:13 409:169 410:253 411:227 428:20 429:165 430:181 431:141 432:51 433:12 437:169 438:253 439:227 464:36 465:234 466:253 467:127 492:46 493:253 494:253 495:97 520:46 521:253 522:246 523:77 548:46 549:253 550:197 576:46 577:253 578:91 604:46 605:253 606:91 632:46 633:253 634:91 660:46 661:253 662:91 688:46 689:253 690:91 716:50 717:253 718:91 744:110 745:253 746:91 #
3.3570862588751573875041879758998e-16 130:246 131:255 132:254 133:255 134:119 135:9 157:56 158:246 159:252 160:252 161:252 162:252 163:65 182:44 183:100 184:100 185:227 186:252 187:252 188:252 189:252 190:252 191:65 210:53 211:195 212:252 213:252 214:252 215:252 216:252 217:252 218:252 219:163 220:17 238:73 239:215 240:252 241:252 242:252 243:252 244:252 245:252 246:252 247:252 248:32 264:36 265:199 266:222 267:252 268:252 269:252 270:252 271:252 272:252 273:252 274:252 275:104 276:7 291:11 292:236 293:252 294:252 295:252 296:252 297:252 298:252 299:252 300:252 301:252 302:117 303:8 319:50 320:252 321:252 322:252 323:252 324:252 325:252 326:252 327:252 328:252 329:252 330:252 331:65 346:62 347:238 348:252 349:252 350:252 351:252 352:252 353:252 354:252 355:252 356:252 357:252 358:252 359:65 373:73 374:222 375:252 376:252 377:252 378:204 379:141 380:219 381:252 382:252 383:252 384:252 385:252 386:184 387:37 401:166 402:252 403:252 404:252 405:252 406:205 407:62 408:177 409:252 410:252 411:252 412:252 413:252 414:98 428:94 429:226 430:252 431:252 432:252 433:252 434:174 435:133 436:230 437:252 438:252 439:252 440:252 441:167 442:30 455:84 456:232 457:252 458:252 459:252 460:252 461:188 462:117 463:234 464:252 465:252 466:252 467:252 468:252 469:130 482:65 483:247 484:252 485:252 486:252 487:243 488:70 489:250 490:247 491:252 492:252 493:252 494:252 495:199 496:9 497:5 510:67 511:252 512:252 513:252 514:252 515:252 516:252 517:252 518:252 519:252 520:252 521:252 522:247 523:154 538:67 539:252 540:252 541:252 542:252 543:252 544:252 545:252 546:252 547:252 548:252 549:252 550:152 565:17 566:156 567:252 568:252 569:252 570:252 571:252 572:252 573:252 574:252 575:252 576:167 577:130 578:5 593:13 594:138 595:252 596:252 597:252 598:252 599:252 600:252 601:252 602:252 603:164 604:30 622:17 623:138 624:252 625:252 626:252 627:252 628:252 629:252 630:170 631:28 651:13 652:147 653:252 654:252 655:252 656:213 657:32 658:18 #
6.522315705253117097264446066002e-16 181:38 182:180 183:148 208:9 209:155 210:252 211:252 212:74 216:22 217:47 218:17 236:47 237:252 238:252 239:252 240:84 244:199 245:253 246:175 264:89 265:252 266:252 267:252 271:34 272:238 273:253 274:244 275:56 291:11 292:203 293:252 294:252 295:147 299:93 300:252 301:253 302:210 303:6 319:149 320:253 321:253 322:245 323:21 327:155 328:253 329:255 330:92 346:95 347:253 348:252 349:252 350:87 354:66 355:236 356:252 357:239 358:33 372:19 373:112 374:246 375:253 376:252 377:221 378:82 379:70 380:70 381:70 382:203 383:252 384:252 385:115 400:70 401:252 402:252 403:253 404:252 405:252 406:252 407:252 408:253 409:252 410:252 411:252 412:252 428:174 429:252 430:252 431:253 432:252 433:252 434:252 435:252 436:253 437:252 438:252 439:252 440:252 456:123 457:253 458:253 459:255 460:249 461:230 462:230 463:230 464:244 465:253 466:253 467:245 468:73 484:25 485:185 486:206 487:144 488:75 492:159 493:252 494:252 495:87 520:253 521:252 522:202 523:13 547:95 548:253 549:252 550:89 575:116 576:253 577:252 578:69 602:9 603:181 604:255 605:218 606:32 630:114 631:252 632:239 633:33 658:207 659:252 660:230 686:207 687:252 688:135 714:155 715:252 716:63 #
3.0613232749956008549673124880415e-14 182:6 183:19 184:120 185:143 186:37 187:19 188:19 189:2 206:5 207:25 208:25 209:117 210:178 211:254 212:254 213:254 214:254 215:254 216:254 217:157 218:92 219:1 234:44 235:254 236:254 237:254 238:254 239:245 240:223 241:223 242:223 243:174 244:150 245:237 246:254 247:97 262:16 263:118 264:189 265:93 266:93 267:66 273:41 274:247 275:255 302:161 303:254 330:143 331:254 357:25 358:246 359:138 384:27 385:208 386:167 387:2 411:27 412:146 413:224 414:100 425:4 426:39 427:75 428:75 429:75 430:97 431:115 432:75 433:75 434:75 435:136 436:75 437:75 438:75 439:145 440:254 441:45 452:45 453:208 454:231 455:254 456:254 457:203 458:173 459:189 460:197 461:173 462:235 463:254 464:254 465:254 466:254 467:254 468:254 469:94 470:82 471:2 480:235 481:254 482:196 483:43 484:43 485:16 487:9 488:13 490:33 491:104 492:214 493:254 494:254 495:212 496:254 497:216 498:251 499:213 508:149 509:254 510:164 511:39 517:23 518:48 519:191 520:218 521:161 522:55 523:19 524:37 525:21 526:35 527:37 536:16 537:103 538:254 539:225 540:100 541:100 542:100 543:125 544:224 545:232 546:240 547:176 548:106 565:2 566:33 567:159 568:254 569:254 570:236 571:148 572:148 573:148 574:54 575:6 595:2 596:18 597:18 598:15 #
-3.0613232749956008549673124880415e-14 102:3 103:7 104:7 105:7 106:7 107:4 130:94 131:253 132:253 133:253 134:253 135:199 136:130 158:211 159:253 160:253 161:253 162:253 163:253 164:129 186:150 187:253 188:253 189:253 190:253 191:253 192:190 214:135 215:253 216:253 217:253 218:253 219:253 220:129 241:31 242:172 243:253 244:253 245:253 246:253 247:236 248:111 266:93 267:78 268:167 269:237 270:253 271:253 272:253 273:253 274:213 275:52 293:11 294:199 295:253 296:253 297:253 298:253 299:253 300:253 301:253 302:18 321:56 322:253 323:253 324:253 325:253 326:253 327:253 328:253 329:253 330:130 331:3 349:15 350:204 351:253 352:204 353:191 354:148 355:68 356:140 357:253 358:253 359:73 378:45 379:61 380:14 384:24 385:235 386:253 387:12 399:6 400:31 412:30 413:237 414:253 415:73 425:42 426:147 427:208 428:225 429:205 430:205 431:183 432:65 439:30 440:209 441:253 442:253 443:12 453:113 454:253 455:253 456:253 457:253 458:253 459:253 460:245 461:211 462:159 465:28 466:88 467:209 468:253 469:253 470:172 471:8 481:254 482:253 483:253 484:253 485:253 486:253 487:253 488:253 489:253 490:244 491:184 492:94 493:205 494:253 495:253 496:253 497:163 498:3 509:194 510:253 511:253 512:241 513:129 514:129 515:211 516:253 517:253 518:253 519:253 520:253 521:253 522:253 523:253 524:165 525:30 537:254 538:253 539:253 540:253 541:253 542:253 543:253 544:253 545:253 546:253 547:253 548:253 549:253 550:253 551:57 552:3 565:79 566:253 567:253 568:253 569:253 570:253 571:253 572:253 573:253 574:253 575:253 576:220 577:141 578:141 579:82 593:6 594:18 595:144 596:253 597:253 598:253 599:253 600:253 601:253 602:166 603:103 604:8 623:1 624:5 625:5 626:5 627:5 628:5 629:5 630:2 #
-3.0613232749956008549673124880415e-14 102:32 103:212 104:253 105:110 106:109 107:109 108:191 129:94 130:227 131:252 132:252 133:253 134:252 135:252 136:252 156:21 157:212 158:252 159:252 160:252 161:253 162:252 163:252 164:252 183:21 184:206 185:253 186:252 187:252 188:252 189:253 190:252 191:252 192:252 210:32 211:129 212:252 213:253 214:252 215:252 216:252 217:253 218:220 219:143 220:143 238:197 239:252 240:252 241:253 242:231 243:76 244:35 245:35 246:25 263:6 264:120 265:182 266:242 267:252 268:252 269:237 270:71 290:42 291:160 292:252 293:253 294:252 295:252 296:252 297:62 318:73 319:253 320:253 321:255 322:253 323:217 346:73 347:252 348:252 349:253 350:252 351:226 352:73 353:42 374:73 375:252 376:252 377:253 378:252 379:252 380:252 381:222 382:181 383:78 384:16 402:31 403:128 404:252 405:253 406:252 407:252 408:252 409:253 410:252 411:252 412:190 433:63 434:144 435:144 436:144 437:255 438:253 439:253 440:253 441:255 442:98 457:32 458:73 459:21 465:128 466:252 467:252 468:252 469:253 470:179 481:16 482:37 483:140 484:181 485:211 486:252 487:195 488:62 491:27 492:120 493:212 494:252 495:252 496:252 497:253 498:158 509:191 510:252 511:252 512:252 513:252 514:252 515:215 516:84 517:145 518:144 519:221 520:252 521:253 522:252 523:252 524:252 525:108 526:15 537:255 538:253 539:253 540:253 541:253 542:253 543:253 544:253 545:255 546:253 547:253 548:253 549:255 550:253 551:237 552:144 565:253 566:252 567:252 568:252 569:252 570:252 571:252 572:252 573:253 574:252 575:252 576:252 577:222 578:138 579:30 593:133 594:215 595:241 596:252 597:252 598:252 599:252 600:252 601:253 602:241 603:215 604:132 605:41 623:78 624:108 625:108 626:108 627:108 628:108 629:108 630:77 #
-7.8486405925858716155629923102908e-16 178:50 179:128 180:210 181:254 182:195 183:75 184:56 185:31 204:1 205:109 206:249 207:253 208:253 209:253 210:253 211:253 212:253 213:228 214:41 232:111 233:253 234:253 235:253 236:253 237:253 238:253 239:253 240:253 241:253 242:201 243:105 244:45 259:39 260:236 261:253 262:253 263:253 264:253 265:253 266:253 267:253 268:253 269:253 270:253 271:253 272:243 273:25 286:7 287:226 288:253 289:253 290:253 291:253 292:253 293:253 294:253 295:253 296:253 297:253 298:253 299:253 300:253 301:187 314:22 315:253 316:253 317:253 318:253 319:253 320:253 321:253 322:253 323:253 324:242 325:253 326:253 327:253 328:253 329:218 341:41 342:214 343:253 344:253 345:253 346:253 347:253 348:191 349:69 350:109 351:70 352:191 353:253 354:253 355:253 356:253 357:218 369:4 370:118 371:253 372:253 373:253 374:253 375:134 376:7 378:8 379:162 380:253 381:253 382:253 383:253 384:253 385:125 398:34 399:253 400:253 401:253 402:253 403:234 404:49 406:50 407:253 408:253 409:253 410:253 411:254 412:253 413:120 415:40 426:1 427:108 428:253 429:253 430:253 431:253 432:236 433:149 434:249 435:253 436:253 437:253 438:253 439:253 440:253 441:224 442:13 455:13 456:183 457:253 458:253 459:253 460:253 461:253 462:253 463:253 464:253 465:253 466:253 467:253 468:253 469:253 470:63 484:8 485:162 486:224 487:253 488:253 489:253 490:253 491:253 492:253 493:253 494:253 495:254 496:253 497:219 514:32 515:172 516:238 517:238 518:238 519:158 520:77 521:175 522:253 523:253 524:253 525:218 549:115 550:253 551:253 552:253 553:218 577:115 578:253 579:254 580:253 581:232 582:26 603:2 604:62 605:146 606:253 607:253 608:253 609:218 631:3 632:91 633:148 634:253 635:254 636:253 637:251 638:60 661:16 662:253 663:254 664:253 665:254 666:64 689:1 690:172 691:254 692:253 693:247 694:53 718:104 719:242 720:253 721:101 #
3.0613232749956008549673124880415e-14 123:16 124:119 125:163 126:73 149:20 150:114 151:233 152:253 153:253 154:247 155:210 156:30 175:19 176:76 177:204 178:254 179:245 180:171 181:132 182:229 183:254 184:193 185:6 202:50 203:226 204:253 205:253 206:151 207:43 210:52 211:208 212:253 213:145 230:210 231:253 232:246 233:98 239:73 240:253 241:242 242:71 257:189 258:254 259:254 260:87 267:27 268:158 269:254 270:170 285:254 286:241 287:76 288:4 296:24 297:232 298:238 299:16 313:95 314:67 325:127 326:253 327:149 348:10 349:19 350:19 351:19 352:2 353:37 354:253 355:233 374:27 375:142 376:217 377:253 378:253 379:254 380:186 381:127 382:253 383:253 384:33 401:53 402:222 403:254 404:254 405:196 406:181 407:255 408:254 409:254 410:254 411:254 412:156 429:148 430:254 431:221 432:76 433:4 435:18 436:133 437:253 438:253 439:253 440:190 441:4 456:10 457:217 458:243 459:28 464:8 465:94 466:232 467:253 468:254 469:76 484:90 485:253 486:142 494:38 495:253 496:254 497:241 498:74 512:109 513:253 514:91 522:19 523:253 524:254 525:253 526:242 527:71 540:110 541:254 542:149 549:11 550:183 551:254 552:208 553:216 554:254 555:247 556:47 568:53 569:237 570:249 571:36 576:12 577:147 578:253 579:220 580:45 581:30 582:213 583:253 584:175 597:123 598:254 599:232 600:139 601:128 602:128 603:186 604:225 605:253 606:244 607:94 610:77 611:245 612:194 626:113 627:232 628:253 629:253 630:253 631:254 632:249 633:222 634:102 639:43 640:16 655:16 656:118 657:162 658:162 659:105 660:57 #
6.3955235899877414299327047286522e-17 121:18 122:34 123:208 124:254 125:255 126:255 127:255 128:254 129:255 130:255 131:235 132:26 148:27 149:164 150:252 151:252 152:252 153:252 154:252 155:252 156:252 157:252 158:252 159:252 160:211 161:44 175:27 176:160 177:252 178:252 179:252 180:252 181:252 182:252 183:252 184:252 185:252 186:252 187:252 188:252 189:164 202:18 203:164 204:252 205:252 206:252 207:252 208:252 209:252 210:252 211:194 212:195 213:252 214:252 215:252 216:252 217:164 230:34 231:252 232:252 233:252 234:252 235:252 236:100 237:87 238:87 239:49 240:50 241:87 242:225 243:252 244:216 245:57 258:208 259:252 260:174 261:54 262:54 263:54 264:5 269:140 270:243 271:235 272:42 286:21 287:20 288:13 296:132 297:246 298:252 299:27 324:144 325:252 326:252 327:48 350:24 351:78 352:177 353:252 354:252 355:230 376:5 377:111 378:154 379:252 380:252 381:252 382:252 383:133 404:137 405:252 406:252 407:252 408:252 409:151 410:109 411:4 431:140 432:246 433:252 434:252 435:252 436:252 437:76 456:84 457:210 458:210 459:243 460:252 461:252 462:188 463:43 464:43 465:13 483:6 484:114 485:252 486:252 487:252 488:222 489:9 490:7 511:52 512:219 513:252 514:252 515:252 516:69 529:49 539:24 540:153 541:252 542:252 543:252 544:245 545:89 546:89 547:89 548:89 549:89 550:89 551:89 552:89 553:89 554:89 555:89 556:89 557:232 567:67 568:252 569:252 570:252 571:252 572:252 573:252 574:252 575:252 576:252 577:252 578:252 579:252 580:252 581:252 582:252 583:252 584:252 585:252 595:67 596:252 597:252 598:252 599:252 600:252 601:252 602:252 603:252 604:252 605:252 606:252 607:252 608:252 609:252 610:252 611:252 612:252 613:252 623:67 624:252 625:252 626:252 627:252 628:252 629:252 630:252 631:252 632:252 633:252 634:252 635:252 636:252 637:252 638:252 639:252 640:252 641:252 651:9 652:119 653:252 654:252 655:252 656:252 657:252 658:252 659:252 660:127 661:32 662:32 663:32 664:32 665:32 666:32 667:167 668:88 669:32 #
3.0613232749956008549673124880415e-14 154:6 155:196 156:255 157:229 158:66 182:64 183:253 184:254 185:253 186:251 187:104 210:97 211:253 212:48 213:72 214:243 215:231 216:148 217:99 238:79 239:253 242:97 243:200 244:246 245:249 246:47 266:9 267:253 268:46 272:219 273:253 274:52 294:9 295:253 296:130 299:128 300:247 301:212 302:9 322:2 323:191 324:238 325:7 326:157 327:248 328:248 329:57 351:138 352:254 353:194 354:249 355:249 356:104 379:58 380:254 381:253 382:251 383:103 407:88 408:254 409:253 410:71 434:34 435:227 436:255 437:183 460:17 461:163 462:248 463:228 464:254 465:183 487:21 488:190 489:248 490:155 491:11 492:254 493:200 494:5 514:43 515:186 516:247 517:127 520:254 521:190 522:2 541:10 542:182 543:247 544:97 547:46 548:254 549:108 569:96 570:253 571:163 574:5 575:198 576:254 577:23 597:140 598:222 599:14 601:2 602:126 603:253 604:151 605:2 625:134 626:253 627:119 628:18 629:65 630:253 631:247 632:21 653:51 654:249 655:253 656:253 657:253 658:246 659:73 682:56 683:177 684:244 685:159 686:49 #
3.0613232749956008549673124880415e-14 161:22 162:221 163:57 189:162 190:176 216:71 217:252 218:68 244:145 245:166 267:89 268:23 271:62 272:250 273:84 294:15 295:228 296:67 298:20 299:236 300:170 321:26 322:212 323:152 326:147 327:229 328:27 348:44 349:240 350:175 351:15 353:44 354:247 355:109 375:85 376:225 377:193 378:32 381:191 382:225 384:27 402:111 403:254 404:253 405:234 406:180 407:224 408:224 409:248 410:243 411:224 412:175 428:7 429:197 430:254 431:216 432:149 433:149 434:136 435:84 436:255 437:189 438:149 439:149 440:84 456:38 457:242 458:106 462:11 463:183 464:220 465:21 484:1 485:12 489:1 490:145 491:253 492:53 517:86 518:253 519:147 544:18 545:212 546:169 547:4 571:4 572:149 573:212 574:18 599:110 600:253 601:85 626:31 627:250 628:197 629:1 654:206 655:240 656:59 681:27 682:241 683:70 #
-1.8888213385166955597829028997955e-14 152:110 153:109 154:109 155:109 177:63 178:176 179:217 180:253 181:252 182:252 183:252 184:218 185:217 186:217 187:134 202:27 203:120 204:181 205:242 206:252 207:252 208:253 209:220 210:221 211:252 212:253 213:252 214:252 215:252 216:182 217:57 218:32 229:42 230:221 231:252 232:252 233:252 234:148 235:108 236:108 237:15 238:16 239:108 240:108 241:148 242:252 243:252 244:253 245:252 246:215 257:134 258:252 259:252 260:143 261:20 270:119 271:252 272:253 273:252 274:231 275:47 284:94 285:247 286:241 287:97 298:78 299:252 300:253 301:252 302:252 303:108 312:129 313:252 314:215 322:6 323:37 324:37 325:161 326:232 327:252 328:253 329:252 330:252 331:108 340:253 341:252 342:236 343:144 345:42 346:41 349:125 350:160 351:252 352:253 353:252 354:252 355:252 356:253 357:252 358:252 359:108 368:110 369:253 370:253 371:253 372:253 373:253 374:253 375:253 376:255 377:253 378:253 379:253 380:255 381:253 382:253 383:191 384:63 385:238 386:253 387:253 396:15 397:77 398:190 399:252 400:252 401:252 402:252 403:252 404:253 405:252 406:252 407:210 408:180 409:179 410:76 411:15 412:94 413:247 414:252 415:252 426:11 427:71 428:71 429:195 430:215 431:215 432:217 433:215 434:195 435:31 440:109 441:252 442:252 443:252 468:191 469:252 470:252 471:252 496:255 497:253 498:253 499:108 513:21 514:21 522:11 523:73 524:253 525:252 526:252 527:108 541:155 542:201 543:78 549:32 550:150 551:252 552:253 553:252 554:226 555:31 569:73 570:252 571:190 572:84 573:125 574:144 575:144 576:145 577:237 578:252 579:252 580:253 581:210 582:92 597:73 598:253 599:253 600:255 601:253 602:253 603:253 604:255 605:253 606:253 607:253 608:255 609:119 625:10 626:149 627:252 628:253 629:252 630:252 631:252 632:253 633:252 634:200 635:179 636:35 637:5 654:11 655:154 656:217 657:215 658:215 659:215 660:154 661:71 662:20 #
-3.0613232749956008549673124880415e-14 153:128 154:191 155:255 156:255 157:255 158:255 159:255 160:191 161:64 179:64 180:255 181:255 182:255 183:255 184:255 185:255 186:255 187:255 188:255 189:255 207:255 208:255 209:255 210:255 211:255 212:255 213:255 214:255 215:255 216:255 217:255 235:255 236:255 237:255 238:255 239:128 240:64 241:128 242:128 243:255 244:255 245:255 246:64 263:191 264:255 265:64 271:255 272:255 273:255 274:64 298:64 299:255 300:255 301:255 326:191 327:255 328:255 329:191 353:128 354:255 355:255 356:255 357:64 380:64 381:255 382:255 383:255 384:128 408:255 409:255 410:255 411:191 434:64 435:191 436:255 437:255 438:255 460:64 461:128 462:255 463:255 464:255 465:191 487:128 488:255 489:255 490:255 491:255 492:128 515:128 516:255 517:255 518:255 519:255 520:64 543:64 544:255 545:255 546:255 547:255 548:191 549:64 573:128 574:191 575:255 576:255 577:191 595:191 596:255 597:255 598:128 603:191 604:255 605:255 606:64 623:255 624:255 625:255 626:255 627:255 628:255 629:255 630:255 631:255 632:255 633:255 634:128 651:255 652:255 653:255 654:255 655:255 656:255 657:255 658:255 659:255 660:255 661:191 662:64 680:128 681:128 682:128 683:191 684:128 685:255 686:255 687:128 688:128 #
